svm_type one_class
kernel_type rbf
gamma 1.4348e-05
nr_class 2
total_sv 1225
rho 437.516
SV
1 2602:4 2603:1 2606:1 2609:2 2611:1 3621:1 3622:1 3623:2 3626:1 3627:1 4272:5 5508:3 6499:1 7590:3 9313:7 9441:1 9548:1 9638:1 10052:12 10570:1 10799:1 11533:1 12326:1 12328:1 12330:1 13006:1 13050:1 14171:9 14938:7 15636:2 16565:1 17762:3 17851:2 17876:1 18934:1 19120:6 19776:1 19809:3 20382:2 21418:1 21687:1 21695:1 21697:4 21700:1 21972:1 22333:1 22612:1 22614:1 22616:1 22619:1 23215:1 23896:2 24621:1 26093:1 28294:4 28481:3 28925:1 28995:2 29000:1 29002:1 29048:1 29207:10 29850:1 29851:1 29855:1 30124:1 30667:2 31243:1 35213:1 36356:1 37382:2 37578:2 37581:1 37583:2 37595:1 38381:6 38623:1 39220:1 39619:1 39623:1 39625:1 40111:1 40237:1 41369:1 41506:1 44274:3 44339:12 45140:1 45271:1 46625:1 46648:2 46650:1 47131:1 47314:1 47624:1 47628:3 47630:1 47631:1 47952:1 48026:1 48032:1 48543:2 48545:1 48550:2 49055:1 49403:3 50333:1 53796:1 54233:1 54402:4 54634:1 55166:1 55239:1 55308:1 55309:1 55312:1 55318:1 56193:1 56969:1 57154:1 57160:1 57883:1 59125:1 59243:1 59268:10 59564:1 59742:1 59971:9 60172:1 60364:1 62281:2 63298:1 63299:1 63834:1 64737:1 65454:1 65490:2 67900:1 68073:1 68135:1 68494:1 69407:1 69506:4 69696:478 
1 1438:1 2597:1 2602:1 2603:3 2607:1 2703:1 3615:1 3622:1 4272:4 5371:1 6545:1 7590:4 8869:1 9313:4 10052:8 11030:1 11533:1 12326:1 12328:1 12331:2 14171:5 14938:1 17851:1 19776:1 19809:4 20743:2 20746:1 21699:1 22619:1 26093:1 27067:1 28294:2 28481:1 28995:1 29207:4 29848:2 29855:1 36356:1 37577:1 37579:1 37582:1 37899:1 38626:1 38643:1 40237:1 41725:1 41885:1 43515:1 44339:4 47624:1 47628:1 47630:1 47941:2 48545:1 48547:2 49403:2 50333:1 54402:4 55310:1 57161:1 57167:2 59268:4 59742:1 59971:6 64017:1 65482:1 65490:2 65491:1 68132:1 69506:1 69696:249 
1 745:1 2601:1 2602:1 2603:1 2606:1 2609:2 2700:1 3625:1 4272:1 7590:2 9313:3 10052:5 11039:1 12326:1 12331:1 14171:4 14938:1 15636:1 16371:1 16553:1 17762:1 19809:1 22616:1 28294:3 28310:1 28481:1 29003:1 29207:2 29508:1 29814:1 29848:1 37583:1 37591:1 37595:1 38623:1 44339:3 44702:1 46648:1 47626:2 47630:1 47941:1 48032:1 48550:1 49403:1 50333:1 54402:1 55664:1 55996:1 57167:1 59971:6 60362:1 65417:1 66082:1 69696:140 
1 464:1 2599:1 2600:1 2602:2 2603:6 2606:1 2612:1 3615:1 3617:2 3622:1 3623:1 3642:2 4083:1 4272:8 5373:1 7590:12 7961:1 8339:2 9313:6 9840:1 10052:26 11711:2 12326:3 12328:1 12331:4 12371:1 13050:1 13635:1 14171:16 14938:4 15919:1 16589:1 17762:1 19120:6 19809:4 21418:1 21687:2 21697:4 21700:4 22616:1 22627:1 23896:1 24621:1 24662:1 27651:1 28294:10 28481:1 29000:1 29006:2 29207:8 29841:1 29844:2 29847:1 29848:5 29849:2 30521:1 30591:1 30667:1 32358:1 33781:1 34548:1 37577:2 37579:4 37582:2 37583:2 37586:2 37593:1 37594:1 37595:1 38381:2 38623:1 39127:2 39220:1 39619:1 39621:1 39625:1 39626:1 40570:1 41549:1 42381:1 42573:1 42660:1 43201:1 43515:1 44339:10 44702:1 45142:1 46643:1 46650:2 47085:1 47182:1 47463:1 47624:4 47630:2 47941:4 48200:1 48545:4 48547:5 48550:2 48859:1 49403:3 49419:1 50333:2 54402:15 54631:1 55305:1 55306:1 55308:1 55310:1 56326:1 56844:1 57156:1 57162:1 57167:1 57173:1 58346:1 58887:1 59268:15 59564:1 59971:14 60602:1 61247:1 61447:1 62281:1 62431:1 63110:1 63487:1 63750:1 63759:2 64017:4 64041:1 64062:5 64290:1 64737:5 65417:1 65485:1 65486:2 65487:3 65866:1 66082:1 67075:1 69046:1 69506:5 69696:761 
1 39:1 269:2 2414:1 2601:1 2602:1 2603:4 2609:2 2704:1 3615:2 3616:2 3617:4 3618:1 3622:2 3623:3 3625:1 4272:14 4890:2 5373:1 5879:1 7098:1 7590:14 8049:1 9313:13 9387:1 10052:22 11441:1 11910:1 12326:1 12328:2 12331:8 13006:1 14113:2 14171:19 14938:6 15029:1 15919:2 16173:1 17446:1 17762:4 17800:1 18325:1 18326:1 18329:1 18394:1 19120:7 19809:4 19964:1 20033:1 20076:1 20739:1 20746:1 20941:1 21418:1 21686:1 21688:1 21691:1 21695:1 21697:5 21698:1 22242:1 22617:3 22619:2 22620:1 23807:2 23896:1 24153:1 24406:1 24621:3 27568:1 27692:3 28294:10 28481:7 29000:1 29002:2 29207:17 29339:1 29387:1 29839:1 29848:2 29850:1 29855:1 30667:1 31436:1 31683:1 33425:1 35723:1 36566:1 37577:2 37579:1 37580:2 37583:1 37591:1 37595:5 37899:1 38022:1 38381:1 38623:2 38628:1 39220:1 39619:1 39623:2 39625:4 39676:1 39920:1 40239:2 41483:1 41549:1 41801:1 42660:1 42878:1 44339:11 44676:1 44703:1 46642:1 46643:1 46647:1 46660:1 46884:1 46948:3 47131:1 47624:1 47626:1 47628:1 47630:2 47941:2 47946:1 48032:1 48540:1 48541:1 48543:2 48545:2 48547:7 48550:1 48862:1 49096:1 49403:5 50333:1 54402:11 55305:1 55306:1 55310:1 56326:1 56457:2 57154:1 57161:2 57167:1 59268:16 59359:1 59564:2 59971:9 61172:1 62281:1 62288:1 63298:1 63299:1 63416:1 63750:1 63756:2 63761:1 64017:5 64737:7 64772:1 65417:1 65486:4 65488:1 65489:2 65491:2 67081:1 67453:1 67900:1 68111:1 68457:1 69506:3 69696:797 
1 743:1 2593:2 2595:1 2596:1 2602:2 2603:4 2605:1 2607:5 2609:1 2700:1 3613:1 3615:4 3623:2 4223:1 4229:1 4272:13 4890:2 4891:1 4897:1 5584:1 5683:1 6499:1 6922:1 7590:16 7961:1 9313:13 9499:1 10052:25 10570:1 10799:1 12326:1 12328:2 12330:2 12331:9 13006:1 13231:1 13233:1 13240:2 14171:17 14938:2 15029:1 15787:1 16371:1 16553:1 17725:1 17762:3 17872:1 18326:1 19120:2 19809:4 20382:1 21687:2 21691:1 21695:3 21696:1 21697:1 21959:1 22616:1 22619:1 22725:1 23623:1 23896:1 24621:1 25505:1 27321:1 27565:1 27566:1 28067:1 28294:12 28481:5 28747:1 28995:1 29207:10 29502:1 29839:1 29847:1 29848:3 29849:1 29850:2 29945:1 30292:1 30667:1 31840:1 33087:1 33638:1 34189:1 34230:1 35723:2 37168:1 37382:1 37579:2 37582:1 37583:2 37586:2 37589:1 37591:3 37595:2 38022:1 38306:1 38399:1 39220:1 39625:1 39626:1 40240:1 40720:1 40766:1 41370:1 41483:1 43500:1 43515:2 43579:1 44338:1 44339:7 44852:1 46642:2 46648:1 47131:2 47624:1 47626:1 47628:1 47630:2 47632:1 47941:2 47942:1 48542:1 48545:3 48547:7 48548:1 48551:1 49403:1 49419:1 49643:1 50036:1 50333:1 52391:1 52618:1 54094:1 54402:14 55304:1 55305:2 55306:1 55318:1 55797:1 56326:1 56333:1 57041:1 57154:1 57160:1 57161:1 57164:1 57167:2 59124:1 59268:12 59564:1 59971:20 60115:1 60370:1 60602:2 60881:1 61172:3 61399:1 62281:2 62505:1 63116:1 63368:1 63750:1 63753:1 64017:6 64062:5 64737:3 64793:1 65485:1 65486:5 65487:1 65490:2 65906:1 66114:1 66216:1 66486:1 66817:1 67077:1 67900:1 68557:1 68765:1 69026:1 69036:1 69125:1 69127:1 69506:5 69696:755 
1 1239:1 1684:1 2602:1 2603:3 2606:1 2607:2 2608:1 2700:1 3611:1 3621:2 3622:4 4272:9 7590:5 8869:1 8947:1 9313:6 10052:15 11712:1 12326:1 12331:2 13738:1 14171:8 14381:1 14938:1 16353:1 17497:1 17762:1 17800:1 18394:1 18555:1 19120:3 19809:2 21687:4 21693:1 21700:1 24621:1 26259:1 27955:1 28294:3 28481:1 29207:8 29309:1 29839:1 29843:1 29847:1 29848:1 29849:3 32330:1 32358:1 33334:1 34738:1 37577:1 37579:2 37583:1 37586:1 37591:1 37592:1 37595:2 38623:1 38626:1 38628:1 39220:2 39623:1 39625:1 39629:1 40570:1 40782:1 41371:1 41506:1 41549:1 43759:1 44033:1 44339:7 46650:1 47624:1 47626:1 47628:1 47630:1 47631:1 47941:1 48545:2 48547:2 48551:1 49403:4 50333:1 51288:1 52226:1 53201:1 54087:1 54402:11 55305:1 55315:2 55319:1 56193:1 56844:1 57154:1 57160:1 57161:1 57164:1 57167:1 58346:2 59268:9 59564:1 59742:1 59971:8 60992:1 61447:1 64017:2 64737:2 65124:1 65486:3 66114:1 66486:1 67453:1 69039:1 69506:4 69696:523 
1 2596:1 2602:2 2603:1 2606:1 3616:1 3621:1 3623:1 4272:3 4890:1 5068:1 5508:1 7590:3 8339:1 9313:1 10052:3 12326:1 12331:2 13050:1 14171:2 15365:1 18326:1 19120:2 19809:3 20746:1 21697:1 22616:1 25778:1 28294:3 28481:1 28587:1 29207:4 29848:1 29850:1 32336:1 32356:1 37595:1 38381:2 39220:1 39621:1 39918:1 41483:1 42878:1 44274:1 44339:3 46648:1 47131:1 47630:1 47941:1 48547:1 49403:1 50333:1 51847:1 54402:2 59125:1 59268:3 59971:5 60360:1 62892:1 64017:1 64062:2 64737:1 65485:1 65486:1 65490:1 69696:193 
1 269:1 398:1 402:1 430:1 630:1 787:1 1057:2 2404:1 2409:1 2597:1 2599:2 2602:1 2603:3 2606:3 2609:2 2611:1 2704:1 3430:1 3615:1 3617:4 3618:1 3621:2 3623:9 3625:1 3626:1 4272:14 4584:1 4890:2 4897:1 6515:1 7590:15 7961:1 9313:16 9387:1 9839:1 10052:38 10799:1 11441:4 12326:2 12328:2 12330:2 12331:8 13006:1 13050:1 13231:1 13240:1 13245:4 13800:1 14104:1 14171:28 14854:1 14938:2 14970:1 15919:2 15920:1 16111:1 16322:2 17762:3 17875:2 18326:1 18409:1 18555:1 19036:1 19120:10 19809:8 20033:1 20328:1 20448:1 20581:1 20743:1 21418:1 21686:1 21687:7 21694:1 21695:1 21697:3 21698:1 21699:1 21700:2 22242:1 22617:2 22619:2 22650:1 22994:1 23216:2 23377:1 23845:1 23896:6 24621:3 26853:1 26999:1 27154:1 27692:1 28294:9 28481:4 28740:1 28747:2 29207:23 29839:3 29841:1 29844:1 29848:5 29849:2 29850:5 29855:1 29856:1 30591:2 30666:1 30667:5 33087:2 33469:1 33533:1 33536:1 34347:1 35281:1 36206:1 36566:1 37168:1 37577:2 37579:4 37580:1 37583:1 37586:1 37589:1 37593:2 37595:7 37823:1 38021:1 38381:5 38623:2 38626:1 38631:1 38639:1 38643:1 39220:1 39619:2 39621:2 39622:2 39625:2 39626:1 40236:1 40239:1 41171:1 41483:1 41549:2 41570:1 41725:1 42231:1 42576:2 43517:1 43519:1 44033:1 44038:3 44043:1 44339:8 45722:1 46642:1 46648:1 46884:2 46948:1 47131:5 47281:1 47624:1 47628:1 47630:3 47941:3 48027:1 48539:1 48542:2 48543:1 48547:10 48548:2 48550:4 49053:1 49403:10 49419:1 50333:1 50895:1 51815:1 53493:1 54402:26 54465:1 55308:1 55319:1 55607:3 57154:2 57161:1 57164:1 57167:2 57635:2 57676:1 59268:20 59564:1 59637:2 59971:16 60361:1 60418:1 61447:1 62281:5 62421:1 62662:1 63116:1 63756:1 63759:1 64017:7 64018:2 64062:7 64535:1 64583:1 64737:5 64772:1 65012:1 65486:3 65487:1 65490:1 65491:1 65505:1 65606:1 67453:3 67900:1 69125:2 69506:2 69696:1089 
1 1682:1 2592:1 2593:1 2602:3 2603:1 2606:4 2607:2 2612:1 3615:3 3617:5 3621:1 3622:2 3623:2 3627:2 4272:6 4345:1 5373:1 6514:1 7590:10 7961:1 9313:14 9499:1 9838:1 10052:19 11437:1 11533:1 12326:1 12328:1 12330:3 12331:2 13006:2 13050:2 13236:1 13245:1 14171:19 14938:4 15061:1 16434:1 17461:1 17762:1 17800:1 17874:1 18743:1 19120:6 19809:2 20591:1 20669:1 20746:1 21210:1 21686:1 21687:1 21689:1 21695:1 21697:3 21698:2 21699:1 21700:1 22108:1 22619:1 22620:1 23623:1 23896:1 24156:1 24621:2 25671:1 26093:1 26165:1 27565:1 28294:3 28481:3 29006:1 29207:17 29839:1 29844:1 29847:1 29849:1 29854:1 30591:1 30667:1 31057:1 33087:1 33852:1 34187:1 35203:1 37167:1 37382:1 37577:1 37578:2 37579:2 37585:1 37586:1 37589:1 37591:1 37593:1 37595:1 37983:1 38381:3 38394:1 38623:3 38626:1 39220:1 39619:1 39622:1 39623:1 39625:1 40163:1 40237:1 40546:1 40570:1 42573:1 43394:1 43515:1 44339:15 46642:1 46658:1 47628:5 47630:1 48026:1 48542:1 48545:2 48547:2 48548:3 48550:1 49055:1 49403:4 50333:1 52226:1 53798:1 54402:7 55305:3 55306:1 55310:1 55312:1 56025:1 57156:1 57162:2 57167:2 59268:17 59282:1 59564:1 59742:2 59971:12 60877:1 60878:1 61447:1 62281:2 63299:1 63487:1 63753:1 64017:2 64062:3 64552:1 64737:3 65485:1 65486:2 66071:1 66817:1 67015:1 67880:1 68590:1 69506:6 69696:767 
1 269:2 1404:1 1945:1 2597:1 2602:1 2603:7 2606:1 2607:1 2609:2 2610:2 3615:1 3617:2 3622:1 3623:4 4272:12 4822:1 4897:1 5371:1 5765:1 5879:2 7590:14 7794:1 7961:2 8319:1 8869:2 9313:10 10052:16 10394:1 12326:1 12328:3 12330:3 12331:5 13006:1 13050:1 14171:13 14543:2 14938:1 15365:1 15788:2 15919:2 17800:1 17851:1 17870:2 18327:2 19120:1 19776:1 19809:6 20743:1 21686:1 21687:2 21688:1 21697:1 21700:1 21701:2 22108:1 22616:1 22619:2 22620:2 22667:1 23190:1 23638:1 24621:1 26165:1 28294:6 28481:8 28740:1 28995:1 29207:10 29847:1 29848:4 29849:2 29850:2 29855:1 30521:4 30842:1 31106:1 32356:1 34563:4 35828:1 36356:1 36710:1 37579:2 37592:1 37595:2 37898:1 38381:3 38396:1 38623:1 38626:2 39220:2 39619:1 40239:2 41191:1 41506:1 41725:1 41866:1 41885:1 42878:1 43201:1 43515:1 43544:1 44062:1 44339:7 44429:1 46625:1 46642:1 46648:1 46660:1 47131:2 47184:1 47449:1 47624:3 47630:1 47941:4 47946:1 48545:1 48547:6 48551:1 49054:1 49403:5 50299:1 50333:1 53687:2 54402:16 54634:1 55308:2 55310:1 55312:1 56193:1 57161:1 57162:1 57164:2 59268:12 59971:18 60175:1 60360:1 60602:1 61447:1 61880:2 62281:1 63299:1 64017:3 64062:2 64583:1 64737:2 65482:1 65487:2 65490:1 65491:1 66082:1 66563:1 67661:1 68132:1 68135:1 68500:1 69039:1 69506:4 69696:725 
1 2593:1 2596:1 2602:2 2603:3 2607:2 2609:1 3614:2 3615:1 3617:1 3623:4 3624:1 3626:1 4272:15 7590:16 7963:1 9313:8 9377:1 9642:1 10052:24 11683:2 11711:1 11912:1 12326:1 12330:1 12331:13 13006:3 13231:1 13233:1 13245:1 14171:25 14616:1 14938:5 15061:2 17566:1 17762:1 17800:1 17875:1 19120:3 19809:3 20581:1 21059:1 21686:2 21687:3 21689:1 21691:2 21695:2 21696:1 21698:1 21700:2 21701:3 22614:1 22616:1 22620:1 23216:1 23896:1 24621:1 25608:1 27570:1 28294:9 28481:4 29000:1 29006:1 29207:12 29839:1 29847:1 29848:2 29849:2 29850:2 29854:1 30668:1 31225:1 33533:1 36358:2 36709:1 37382:1 37583:1 37586:2 37595:2 37672:1 38072:1 38381:3 39220:1 39623:2 40167:2 42009:1 44033:1 44339:8 44702:1 45640:1 46650:3 46884:1 47131:2 47463:1 47464:1 47624:1 47628:1 47630:3 47938:1 47941:2 48541:1 48542:2 48543:1 48545:3 48547:12 48548:3 48756:1 49055:1 49403:1 49767:1 50179:1 50333:1 54402:11 54586:1 55169:1 55305:1 55306:1 55312:1 55315:1 55319:1 55664:1 55793:1 56511:1 56844:1 56969:1 57158:1 57163:1 58298:1 58760:1 59268:22 59392:1 59564:3 59971:10 60874:2 61245:1 61448:1 61872:1 62281:3 62288:1 63416:1 63487:1 63761:3 63834:1 64017:12 64062:8 64737:4 64869:1 65417:1 65485:1 65486:1 65489:1 65490:4 65491:1 65505:1 66486:1 67076:1 69125:1 69506:5 69696:829 
1 269:1 287:1 402:2 577:1 836:1 2010:1 2593:2 2596:1 2597:1 2601:1 2602:5 2603:6 2605:1 2606:2 2607:3 2608:1 2609:6 2701:2 2703:1 2908:1 3614:2 3615:1 3616:1 3617:3 3621:1 3622:5 3623:8 3625:2 3627:1 4272:31 4371:1 4556:1 4897:1 5374:1 5511:1 5667:1 5760:1 5879:3 6138:1 6513:1 6516:1 6647:1 7590:19 7961:3 7963:1 8339:1 8869:1 9001:1 9180:2 9313:20 9840:1 10052:63 11441:3 11712:1 12326:2 12328:3 12331:10 13006:1 13050:5 13072:1 13231:1 13233:4 13236:1 13240:2 13245:2 13587:1 13736:1 14171:37 14553:1 14938:10 14970:1 15029:1 15365:1 15406:1 15636:2 15637:1 15638:2 15919:1 16105:2 16353:1 16371:1 16553:1 16842:1 17762:4 17800:1 17851:1 18325:2 18328:1 18394:1 19120:15 19776:1 19809:10 19935:1 19956:1 19964:1 20382:4 20665:1 20743:2 21074:1 21187:1 21415:1 21419:1 21688:4 21696:1 21697:3 21698:2 21700:3 21701:1 22616:1 22617:1 22619:1 22620:1 23244:1 23896:8 24621:3 24682:1 25470:2 26127:1 26259:1 26543:1 26699:1 26853:1 27377:1 27568:1 27651:1 28067:1 28294:16 28481:4 28995:1 29207:36 29784:1 29839:3 29841:1 29844:1 29847:1 29848:6 29849:1 29850:7 29855:3 29945:1 30578:1 30591:2 30667:5 30668:3 32660:1 33469:1 34263:1 34269:1 34466:1 34676:1 36356:1 36566:2 36710:1 36890:1 37225:1 37382:2 37577:1 37578:2 37579:10 37580:2 37581:2 37582:1 37583:2 37586:4 37591:1 37593:2 37595:15 37823:1 37995:1 38021:1 38381:8 38394:3 38623:2 38626:3 38631:2 38639:3 38640:1 38643:2 39192:1 39220:6 39619:2 39622:2 39623:3 39626:3 40239:1 40550:1 40554:1 41211:1 41371:1 41506:4 41549:2 41725:1 41866:1 42394:1 42576:2 42804:1 42878:1 43167:1 43204:1 43557:1 43761:1 44033:2 44038:1 44339:25 44563:1 44702:3 44804:1 44926:1 44960:1 45898:1 46642:1 46648:1 46650:5 47127:1 47131:6 47463:3 47464:1 47624:5 47626:2 47628:4 47630:4 47941:2 48026:1 48027:2 48032:2 48395:1 48540:2 48541:1 48542:1 48545:2 48547:10 48548:4 48550:6 48551:4 49056:1 49403:11 50333:1 50371:1 50764:1 51019:1 51816:2 52635:1 53293:1 53528:1 53672:1 54402:30 55304:3 55305:1 55310:2 55312:2 55315:1 55664:3 55786:3 56193:2 56511:1 56517:1 57154:1 57156:2 57160:1 57162:1 57163:1 57167:5 57659:2 59268:26 59348:1 59564:7 59742:2 59971:32 60360:1 60701:1 60880:1 60881:1 60992:2 60997:1 61431:1 61802:1 61972:1 62281:2 62421:2 63299:1 63753:1 63756:1 63759:1 64017:6 64019:1 64062:15 64427:1 64715:1 64737:6 65417:3 65485:2 65486:3 65487:1 65488:1 65489:1 65490:1 65491:4 66082:1 66486:2 67015:2 67453:2 67661:1 68789:1 69037:1 69039:1 69506:14 69696:1922 
1 1056:1 2593:1 2597:1 2602:2 2603:1 2606:2 2607:2 2608:1 2609:3 2610:1 2611:1 2612:1 2710:1 3615:2 3617:2 3618:1 3621:1 3622:3 3623:2 3626:1 4272:10 4890:1 4891:1 4895:2 5371:1 5402:1 5584:1 6499:1 6515:1 6727:1 7590:18 8669:1 9150:1 9313:15 10052:25 11682:1 11711:1 11831:1 11912:2 12326:1 12328:4 12330:3 12331:9 13050:1 13240:2 13245:1 13799:1 13800:1 14171:27 14938:2 14971:1 15637:1 16322:1 17762:3 17875:1 17876:1 18326:1 18650:1 19120:6 19809:2 20382:1 20745:1 21418:1 21686:1 21687:3 21697:1 21698:1 21700:2 21972:1 22108:1 22242:1 22616:1 22619:1 22620:3 23215:1 23623:1 23788:1 23896:3 24621:1 26093:1 26165:1 27566:1 28294:3 28481:6 29048:1 29207:15 29847:1 29855:1 30667:3 35618:1 37578:3 37582:3 37583:2 37586:2 37594:1 37595:2 38381:2 38623:2 38626:1 38631:1 38633:1 39220:2 39619:2 39622:2 39624:1 40237:1 40546:1 40762:1 41483:1 41570:1 41885:1 43203:1 43500:1 43515:1 43519:1 44339:14 44405:2 44702:1 46114:1 46650:1 46660:1 47085:1 47126:1 47464:1 47624:1 47628:3 47630:2 48162:1 48539:1 48540:2 48541:1 48542:2 48545:4 48547:7 48548:2 49403:8 49915:1 50299:1 50333:1 51815:1 53493:1 54087:1 54233:1 54356:1 54402:6 54584:1 54623:1 55305:2 55306:2 55310:2 55312:1 55664:1 56025:1 56516:1 56844:1 57157:1 57158:1 57162:1 57167:1 57676:1 58221:2 58881:1 59268:13 59564:1 59742:3 59971:18 60877:1 61576:1 61873:1 62281:5 63756:1 64017:5 64018:1 64062:4 64583:1 64737:2 65417:1 65486:2 65487:1 65491:2 66081:1 66829:1 67081:1 67453:1 67469:1 68557:1 69138:2 69506:7 69696:838 
1 269:1 402:1 2593:1 2599:1 2602:1 2605:1 2606:3 2607:1 2609:2 2612:1 3616:1 3617:3 3621:1 3622:1 3623:4 4272:7 5372:1 5584:1 5879:1 7332:1 7463:1 7590:8 7963:1 8954:1 9313:9 10027:1 10052:14 12326:1 12330:1 12331:3 12620:1 13050:2 13231:1 13235:1 13240:1 13883:1 14171:15 14938:1 15410:1 15636:2 15919:1 17762:2 17800:1 17874:1 18325:1 18394:1 19120:4 19809:4 21059:1 21686:1 21687:2 21691:1 22616:3 22619:1 22620:1 23623:1 24621:2 25608:1 26503:1 27566:1 28294:4 28481:5 28995:1 29207:11 29416:1 29841:1 29848:1 29849:1 29850:3 32358:1 36710:1 37577:1 37579:1 37582:1 37583:2 37586:1 37595:2 38381:4 39127:1 39626:1 40239:1 40766:1 41367:1 41371:1 41506:1 43500:1 44033:1 44339:6 46650:1 47131:3 47463:1 47626:2 47630:2 47841:1 47935:1 48032:1 48541:1 48545:3 48547:3 48548:1 48550:3 49403:2 49419:1 50333:1 53804:1 54402:8 55305:1 55310:1 55794:1 56326:1 57156:1 57160:2 57161:1 57163:1 57414:1 57633:1 59268:7 59971:13 61447:1 62017:1 62281:2 62421:1 63751:1 63753:1 63761:1 64017:2 64041:1 64062:4 64737:6 65486:2 66081:1 66082:1 67080:1 67453:1 67762:1 68120:1 68502:1 69506:2 69696:538 
1 744:1 785:1 1119:1 1436:1 2404:1 2593:2 2596:3 2597:2 2599:3 2601:1 2602:4 2603:1 2607:2 2609:2 2612:2 2700:1 3034:1 3616:1 3621:1 3622:1 3623:8 3798:2 4272:15 4371:1 4890:3 4894:1 5879:3 7463:1 7590:15 8257:1 9080:2 9313:13 9639:1 10052:33 10425:1 10799:2 11256:1 11375:1 11437:1 11712:1 12326:1 12330:1 12331:10 13235:1 13236:1 13240:1 14113:1 14171:28 14938:4 15636:1 17374:1 17762:1 17800:2 17872:1 18325:2 18743:1 19036:1 19120:6 19809:7 20669:1 20743:2 20745:1 21697:2 21698:2 21700:3 21701:1 22255:1 22614:1 22616:2 22617:1 22620:1 23768:1 23896:1 24104:1 24621:1 26853:1 28294:10 28481:5 28746:1 28747:3 29000:1 29006:2 29207:13 29502:1 29842:1 29845:1 29847:1 29848:2 29850:2 29854:1 29855:4 30666:1 31344:1 31840:1 33352:1 33927:1 34268:1 35594:1 36364:1 36710:1 37390:1 37579:4 37580:3 37583:3 37585:1 37586:1 37588:1 37591:2 37594:1 37595:5 37670:1 38381:4 38623:4 38633:1 38639:1 38643:3 38650:1 39220:1 39621:1 39622:1 39623:1 40170:1 40570:1 40716:1 41487:1 41506:1 41549:1 41725:1 42736:1 43204:1 44339:6 44851:1 45154:1 45530:1 46642:1 46650:1 46656:1 46658:1 47131:2 47624:1 47630:1 47631:1 47935:2 47941:1 48032:2 48545:3 48547:11 48548:1 48550:5 48551:2 48711:1 48979:1 49403:5 49774:1 50333:1 51620:1 52397:1 53615:1 54402:14 54582:1 55304:1 55306:1 55319:1 55384:1 56457:1 57158:1 57167:2 57487:1 57635:2 59268:15 59282:1 59564:1 59971:22 60878:1 60964:2 61499:1 62281:2 63487:2 63750:1 63759:2 63911:1 64017:10 64062:4 64549:1 64552:1 64737:4 64793:1 65281:1 65486:2 65487:1 65488:1 65490:1 65491:2 65949:1 65952:1 67082:1 68499:1 69040:1 69127:1 69506:3 69696:884 
1 46:1 269:1 373:1 398:1 1682:2 2593:2 2599:1 2602:2 2603:1 2606:1 2609:1 2612:2 3615:1 3617:1 3621:1 3623:1 3625:1 3626:1 4272:5 4894:1 5508:1 5511:1 5584:1 7590:12 9313:7 9839:1 10052:14 11455:1 12326:1 12328:1 12330:1 12331:6 13006:1 14171:7 14938:3 15785:1 15919:1 16371:1 16553:1 16749:1 17374:1 17762:1 17875:1 18658:1 19120:5 19809:1 21687:1 21695:1 21696:1 21697:3 21700:3 22616:1 22619:1 22620:1 23216:1 23623:1 23896:2 24621:1 25764:1 27566:1 28294:3 28481:4 28746:1 29002:1 29006:2 29207:7 29839:2 29844:1 29849:1 30591:1 30667:2 34347:1 36709:1 36818:1 37578:2 37579:1 37583:2 37586:1 37588:1 37593:1 37899:1 37995:1 38022:1 38381:5 39220:2 39623:1 39624:1 40239:1 40766:1 42055:1 42536:1 42573:1 42801:1 43500:1 43519:1 44274:1 44339:5 47630:1 47631:1 47935:1 48547:3 49403:2 50179:1 50333:1 52226:2 54402:5 55304:1 55305:1 56511:1 56619:1 57161:1 57164:2 57636:1 58604:1 59268:9 59308:1 59971:10 60964:1 61399:1 61447:1 62410:1 63487:2 64017:2 64737:1 64776:1 65486:1 68590:2 69506:2 69641:1 69696:516 
1 269:2 378:1 402:1 550:2 659:1 881:2 2012:1 2596:1 2601:1 2602:4 2603:2 2605:1 2606:3 2607:7 2609:4 2610:2 3615:2 3617:4 3622:1 3623:6 4272:22 4556:1 4890:1 5371:3 5402:1 5508:1 5879:1 6512:1 6773:2 7590:10 7961:3 9110:1 9313:19 9548:1 9592:1 10052:15 10750:1 11533:1 11910:1 12326:1 12330:1 12331:2 13006:1 13231:1 13240:1 13244:2 13245:1 14171:23 14178:1 14925:1 14938:3 15029:1 15365:1 15617:1 15742:1 15919:3 16371:2 17762:3 17800:1 17851:1 17872:1 18555:1 19120:8 19776:1 19809:6 20382:3 20581:1 20739:1 20746:1 21187:2 21418:1 21686:3 21687:6 21688:1 21690:2 21691:2 21692:2 21693:2 21697:2 21698:2 21700:2 21701:1 22333:1 22616:1 22619:3 22809:1 24156:1 24621:2 25052:1 26140:3 28026:2 28294:7 28481:5 28747:1 28995:1 29006:1 29207:20 29839:2 29843:1 29845:2 29847:1 29848:1 29850:2 29851:1 29854:2 29855:1 30147:3 30521:1 30830:1 31225:1 33158:1 34551:1 35582:2 35696:1 36356:1 36358:1 37382:1 37545:1 37578:1 37579:2 37580:1 37583:1 37591:1 37595:4 37898:1 38021:2 38381:4 38396:2 38532:1 38628:1 38664:1 38946:1 39220:1 39623:5 40236:1 40239:2 42369:1 42878:1 43203:1 43205:1 44274:1 44339:8 46173:1 46648:1 46658:1 46884:1 47124:1 47126:1 47131:2 47628:1 47630:2 47938:1 47941:1 47952:1 48026:1 48032:1 48541:3 48543:3 48545:3 48547:4 48548:2 48550:2 49403:2 50333:1 50521:2 51613:3 51815:1 54356:1 54402:22 55306:1 55309:2 55310:8 55312:1 55786:2 56326:2 57154:1 57156:1 57160:2 57161:1 57581:1 59268:28 59564:1 59971:25 60360:1 61101:2 61448:2 61762:1 61976:2 62281:4 62675:1 62771:1 63298:2 63487:1 63760:1 63761:1 63971:1 64017:2 64062:8 64715:1 64737:4 65485:1 65486:2 65487:2 65489:1 65490:2 65491:4 65505:1 65859:2 67080:2 67082:1 67477:1 68557:3 68789:1 68919:1 69125:3 69401:1 69506:13 69538:1 69696:1027 
1 269:2 1758:1 2602:2 2603:1 2700:1 3430:2 3615:2 3617:5 3622:3 3623:3 3625:1 4272:4 4891:1 5508:2 5512:1 7590:10 9313:12 9548:2 10052:16 11256:1 11441:1 11716:1 12326:2 12328:1 12331:4 13232:1 14171:17 14970:1 15919:2 17762:4 17800:1 19120:5 19809:2 20191:1 20382:1 21689:1 21693:2 21696:2 21697:3 22619:2 22647:2 23216:1 23896:2 27568:1 27651:1 27813:1 28294:2 28481:2 29207:17 29848:2 29849:2 30667:2 32356:3 32660:1 33532:1 33852:2 33927:1 36566:1 37578:1 37591:1 37595:1 37982:1 38381:6 39082:1 39220:3 39622:1 39623:2 40239:2 41365:2 42369:3 43167:1 44274:2 44339:7 44702:1 47127:1 47264:1 47624:1 47630:5 47941:1 48026:1 48543:3 48545:2 48547:6 48548:1 48550:1 49403:2 50333:1 54402:4 55305:1 55306:1 55319:2 55664:1 56193:2 56844:1 57158:1 57160:2 57167:2 57453:1 58159:1 59268:10 59971:6 60602:3 60880:1 63298:2 64017:3 64062:2 64643:2 64737:5 64886:1 65417:1 65490:1 67453:1 68135:2 69435:1 69506:5 69696:554 
1 269:1 1166:1 2593:1 2596:1 2601:1 2602:2 2603:3 2609:2 2700:1 2703:1 3614:1 3615:1 3616:2 3617:8 3618:3 3623:6 3625:1 4082:1 4272:19 4345:1 4890:1 4896:1 5373:1 5879:3 5950:1 6352:1 7578:3 7590:12 7961:1 8339:3 9313:22 9642:1 10027:1 10052:30 11441:3 11533:1 11718:1 12324:1 12326:1 12328:1 12330:1 12331:4 12667:1 13236:1 13245:1 14104:1 14113:2 14171:26 14553:1 14938:7 15250:1 15636:1 15919:1 16254:1 16322:1 16434:1 17762:5 17800:2 17851:1 17875:1 18325:3 18326:1 19120:4 19776:1 19809:6 20382:2 20665:1 20739:1 21030:1 21419:1 21686:1 21687:6 21691:1 21694:1 21695:1 21699:1 21700:7 21701:1 22242:3 22614:1 22617:1 22619:1 22770:1 23216:3 23377:1 23896:3 24153:1 24291:1 24381:1 25570:1 25671:3 26853:3 27570:2 28294:9 28481:3 28741:1 28747:1 28995:1 29003:1 29006:3 29207:25 29839:3 29848:3 29849:2 29850:4 30667:3 32358:1 33087:2 33535:3 33852:1 34342:1 35756:1 36356:1 36366:1 36566:1 37024:3 37382:1 37577:2 37579:1 37580:2 37582:2 37586:1 37589:1 37591:1 37595:6 38381:4 38623:2 38633:3 39220:2 39622:2 40239:1 40824:1 41367:3 41370:1 41483:1 41866:1 41872:1 44339:8 46642:1 46645:1 46648:4 46929:1 47131:4 47624:2 47626:2 47628:1 47630:2 47855:1 47941:2 48032:1 48539:1 48545:7 48547:8 48550:1 48979:2 49403:11 49767:1 50139:1 50194:1 50333:1 50371:1 51003:1 52391:1 54402:16 55169:1 55305:3 55306:1 55310:1 55312:2 55993:1 56193:1 56326:1 56457:2 56517:1 56844:1 56969:1 57154:1 57156:1 57158:1 57159:1 57160:4 57162:1 57167:4 59268:31 59564:2 59971:14 60362:1 60367:3 61447:1 62281:1 63116:1 63487:3 63753:1 63756:2 64015:1 64017:4 64018:1 64062:7 64549:2 64737:5 65486:3 65488:2 65490:2 65491:3 66998:1 67075:3 67210:1 67880:1 68115:1 68128:1 69027:1 69127:1 69506:8 69696:1105 
1 1758:1 2602:2 2603:2 2606:3 2609:2 2700:1 3614:1 3615:2 3616:2 3617:5 3623:4 3626:2 4272:6 4894:1 4897:1 5156:2 5950:2 7590:13 7961:1 8339:2 8869:1 9313:15 10052:19 11718:1 12326:1 12328:3 12331:4 13235:1 14104:1 14171:20 14938:7 14970:1 15027:1 15636:1 16932:1 17800:1 18555:2 18857:1 19120:8 19809:4 20018:1 20382:1 21030:1 21687:2 21688:1 21697:2 21700:2 21701:1 22108:1 22109:1 22111:1 22620:2 24291:1 24381:1 24621:1 26165:1 28294:6 28481:2 28746:1 29000:1 29003:1 29006:2 29207:20 29839:1 29845:1 29848:1 29850:3 29851:1 29855:1 32356:1 33087:1 34342:1 34916:1 36021:1 36713:1 37579:2 37586:1 37588:1 37589:1 37591:3 38381:6 38623:1 38626:2 38633:1 38643:1 39220:3 39619:2 39623:1 39624:2 39625:1 39686:1 41017:1 41866:2 43514:1 44339:8 44702:1 45753:1 46648:1 46650:1 47131:3 47471:1 47624:2 47630:2 47632:1 47941:1 47952:1 48541:1 48547:7 48548:2 48550:2 48979:1 49403:7 50333:1 52391:1 53798:1 54402:12 54584:2 54944:1 55305:1 55306:1 55664:1 56193:1 56844:2 57154:2 57158:3 57159:1 57161:1 57162:3 57167:2 59268:13 59564:3 59971:16 60397:1 60602:2 60873:1 62564:1 62985:1 63299:1 63487:2 63756:1 63760:1 64017:2 64062:5 64549:1 64737:4 65417:1 65485:1 65486:2 65488:1 65505:1 65917:1 66587:1 67261:1 67453:1 68128:1 69046:1 69125:1 69127:1 69506:3 69628:1 69696:835 
1 46:1 464:1 2593:2 2602:1 2603:3 2607:1 2609:3 2966:1 3617:1 3623:5 3798:1 4272:5 4890:1 5156:1 5879:1 6514:1 7590:6 9080:1 9313:12 9602:1 10052:12 11437:1 11441:1 12326:1 12330:3 12331:2 13245:1 14171:13 14938:3 16322:3 16842:1 17461:1 17762:3 17875:3 18325:1 19120:4 19809:2 20191:1 21687:2 21689:1 21693:2 21696:1 21697:1 21698:1 21699:1 21700:2 23216:1 23896:1 24621:2 25671:1 27295:2 28294:5 28747:1 29002:1 29006:1 29207:9 29839:1 29847:3 29848:1 29850:1 30667:1 34189:1 34676:1 37580:1 37583:1 37585:1 37595:2 39220:1 39625:1 39629:1 43167:1 44339:3 44702:1 46650:2 47131:1 47223:1 47474:1 47630:1 47941:1 48545:2 48547:4 48548:1 48551:2 49403:2 50333:1 54402:10 54583:2 55306:4 55308:1 55309:2 55312:2 55664:1 56451:2 56844:1 57154:2 57158:2 57160:1 57167:1 59268:14 59564:1 59971:11 62281:2 63487:1 63750:2 63760:2 64017:1 64018:3 64062:1 64549:1 64737:6 65417:1 65486:1 65488:1 65505:1 65859:1 67504:1 68723:1 69039:2 69125:2 69435:1 69506:9 69696:497 
1 402:2 1436:1 2593:2 2597:1 2599:1 2602:2 2603:4 2606:1 2607:1 2608:1 2609:1 2611:2 2700:1 3430:1 3615:2 3617:1 3618:1 3623:7 3627:2 4272:13 4891:1 4896:1 5373:1 5508:1 7590:6 7961:1 8339:3 9313:13 9548:1 9838:1 10052:30 10570:1 11533:1 11635:1 12326:1 12330:2 12331:3 13006:1 13050:1 13231:4 13240:1 13245:1 13747:1 14157:2 14171:30 14938:5 15365:1 15638:1 16254:2 16429:2 17762:4 17876:2 18324:1 18615:1 19120:4 19501:2 19809:7 19948:1 20382:1 20581:1 20743:1 20745:1 20746:1 21419:1 21687:2 21691:2 21697:1 21698:3 21700:2 21972:2 22032:1 22108:1 22242:1 22614:2 23896:5 24621:1 26165:1 27097:1 28294:5 28481:2 28741:1 29002:1 29207:15 29843:1 29844:1 29848:2 29850:3 29851:1 29854:2 29855:5 29945:3 30591:2 30667:5 32499:1 33087:1 34189:1 34230:1 34269:1 35213:1 35594:1 36364:1 37168:1 37382:1 37577:1 37579:3 37586:2 37589:1 37591:3 37593:2 37595:1 37669:1 38021:1 38381:6 38623:2 38628:1 38643:3 38670:1 39220:1 39622:1 39623:2 39625:1 40111:1 42573:2 44274:1 44339:7 44806:1 45154:1 45641:1 45898:1 46648:2 46656:1 47131:3 47626:2 47628:1 47630:1 47631:1 47941:1 47945:1 47949:1 47952:1 48027:1 48029:1 48032:1 48540:4 48545:4 48547:3 48548:3 48550:3 48551:1 49403:5 49767:1 50194:1 50333:1 51003:1 52391:1 52618:1 53101:1 53758:1 54233:2 54402:17 54586:1 55304:1 55306:1 55310:2 55312:1 55318:1 55319:1 56326:2 56328:2 57156:1 57158:1 57162:1 57167:3 57635:1 59243:1 59268:18 59564:1 59971:17 60360:1 60647:1 61805:1 62281:2 62421:2 63298:1 63756:2 64017:3 64062:10 64336:1 64456:1 64737:4 65333:1 65454:1 65482:1 65486:7 65490:2 65491:1 65949:2 65952:1 66484:1 67015:1 67210:1 68111:1 68115:1 69127:1 69128:1 69407:1 69506:7 69696:869 
1 577:1 1119:1 1122:1 2012:1 2596:2 2602:4 2603:4 2606:3 2607:2 2609:1 2611:1 2700:1 3615:1 3618:1 3623:1 3625:1 3776:1 4272:14 4534:1 4890:1 5374:1 5879:2 6139:1 6513:1 7463:1 7590:10 7819:1 9313:14 9526:1 10027:2 10052:24 11711:1 11912:1 12324:2 12326:1 12330:2 12331:3 13006:2 13245:1 13738:1 14171:12 14938:3 17800:1 17872:1 17876:1 18325:1 18326:1 19120:4 19809:4 19917:1 20382:1 20745:1 21415:1 21687:5 21692:4 21695:2 21697:4 21700:2 21972:1 22616:1 22617:3 22619:1 22770:1 22809:1 23377:1 23896:4 24101:1 24621:2 24650:1 25570:2 27411:1 28294:7 28481:7 28747:1 29002:1 29207:8 29845:2 29847:1 29848:4 29849:1 29850:1 29854:2 30666:2 30667:1 30668:1 31221:1 33852:1 34189:1 35401:1 36366:1 37345:1 37579:2 37581:1 37582:2 37583:1 37586:2 37591:2 37594:1 37595:4 38021:1 38381:1 39220:4 39622:2 39623:1 40236:1 41483:1 41570:1 42365:1 43399:1 44339:8 45722:1 45862:1 45928:1 46642:1 46650:1 47127:1 47463:1 47624:2 47630:2 47841:2 47938:1 47941:2 47949:1 48064:1 48539:1 48547:4 48550:2 50333:1 54233:1 54402:15 55023:1 55304:2 55306:2 55309:1 55310:2 55312:1 55315:1 55794:2 56327:1 56534:1 56844:2 57160:1 57167:2 59268:21 59564:2 59971:21 60544:1 61172:1 61447:1 61448:1 62281:2 62288:1 63116:1 63298:1 63753:1 63761:1 64015:2 64017:2 64062:1 64642:1 64737:4 64869:1 65333:1 65486:4 65489:1 65490:2 65491:1 65859:1 66829:1 68008:1 69125:1 69506:10 69696:829 
1 269:1 743:2 836:3 1119:2 2400:1 2593:1 2596:1 2598:2 2601:1 2602:1 2603:3 2606:3 2607:4 2609:7 2700:1 2703:1 3615:3 3617:2 3621:2 3622:1 3623:4 3984:2 4272:20 4556:2 5156:1 5228:2 6904:1 7463:1 7590:16 9110:1 9112:2 9313:17 9838:1 10028:1 10052:30 11441:3 11533:1 12326:1 12328:2 12330:2 12331:4 13006:1 13050:1 14157:1 14171:25 14174:1 14554:1 14938:9 14972:1 15563:1 15637:4 15784:1 15919:1 15920:1 16105:1 16173:1 16322:1 16371:2 16553:2 17692:2 17762:3 17800:1 17874:1 17875:1 18329:1 18394:1 18778:1 19120:10 19809:4 20382:1 20739:1 20994:1 21418:2 21687:3 21688:1 21695:1 21696:2 21698:1 21700:2 22616:1 22617:2 22619:2 22620:1 22839:1 23215:1 23896:4 24621:1 24648:2 25671:1 26699:2 26853:1 28294:10 28481:6 28846:1 28997:2 29000:2 29006:1 29048:1 29207:16 29839:1 29844:1 29849:1 29850:2 29855:3 29856:2 30521:1 30667:4 34187:1 34551:1 35929:1 36206:1 36361:1 36710:1 37578:1 37579:2 37582:1 37583:2 37586:4 37590:1 37591:2 37595:6 38381:5 38626:1 38633:1 38643:2 38833:2 39220:2 39623:3 39624:1 39626:1 40236:1 40239:1 40544:1 41506:1 42797:2 43167:2 43201:1 43204:1 43515:1 43519:1 43579:1 44038:2 44339:6 44699:1 44702:1 45482:1 46642:1 46648:1 46650:3 46660:2 47131:2 47628:1 47630:1 48032:2 48541:2 48542:1 48543:1 48545:2 48547:7 48548:1 48550:3 48757:1 49055:1 49403:7 49774:1 50069:1 50333:1 50371:3 51613:1 51660:1 53101:1 54402:17 54582:1 55305:1 55312:1 55319:2 55538:1 55620:1 55664:1 56194:1 56511:2 56537:1 56844:1 57154:1 57158:1 57164:1 57167:3 58587:1 59010:2 59257:2 59268:18 59564:3 59569:1 59971:25 60514:1 61576:1 62281:2 62288:1 62675:1 63416:1 64017:1 64018:1 64715:1 64737:1 65417:2 65485:3 65486:4 65487:2 65488:1 65489:1 65490:1 65491:1 65505:1 65606:1 65949:1 66082:1 66486:1 66562:1 67453:3 68280:1 68498:1 68789:2 69125:1 69401:1 69506:4 69696:1198 
1 550:1 1776:1 2601:1 2602:1 2603:2 2604:1 2606:1 2700:1 2703:1 3621:1 3623:1 4272:2 5156:1 7590:3 8869:1 9313:4 10028:1 10052:6 10425:1 11533:1 12326:1 12328:1 14171:2 14554:1 14938:1 16353:1 17800:1 19120:1 19809:1 21687:2 22620:1 23768:1 26604:1 28294:2 28481:1 28846:1 29048:1 29207:4 29608:1 29843:1 29845:1 29848:1 35570:1 36017:1 36710:1 37578:1 37582:1 37583:1 37591:1 37595:1 38381:1 38623:1 38626:1 38633:1 39220:1 39624:1 43519:1 43757:1 44339:3 46642:1 47630:1 49403:4 50333:1 53796:1 54402:7 56844:1 57167:3 59268:3 59971:6 61576:1 65487:1 66562:1 68789:1 69396:1 69696:258 
1 402:1 677:1 1404:1 2598:2 2599:1 2601:1 2602:2 2603:3 2606:2 2700:1 2704:1 3617:1 3621:2 3622:1 3623:4 3625:1 3984:2 4272:8 4890:2 5156:1 5228:2 5374:1 5879:2 6367:1 6516:1 7590:5 8869:1 9313:6 10052:12 11489:1 12326:1 12330:1 12331:2 13050:1 13245:1 14171:6 14938:5 15016:1 17225:1 17800:1 17869:1 18325:1 19120:2 19809:3 20033:1 20382:1 20717:1 21687:1 21688:1 21700:2 21735:1 22614:1 22616:1 22617:1 22620:1 27258:1 28294:4 28481:4 28997:2 29006:1 29048:1 29126:1 29207:12 29839:1 29845:1 29850:2 30521:1 31575:1 33164:1 34551:1 36710:1 37578:2 37583:2 37585:1 37586:1 37591:1 37595:5 38381:2 38626:1 38628:1 39220:1 39622:1 39624:1 41370:1 41487:1 42369:1 43704:1 44339:10 46648:1 46650:1 46920:1 47131:2 47463:1 47626:1 47628:1 47630:3 48032:2 48540:1 48548:2 48550:2 49403:5 50333:1 54402:8 55149:1 55308:1 55310:1 55996:1 56194:1 56331:1 57160:1 57167:3 57634:1 59010:2 59268:6 59742:1 59971:14 60362:1 60602:1 60881:1 61576:1 62421:1 63487:1 63750:1 63758:1 64062:1 64737:2 65333:1 65486:1 65956:1 66082:1 66114:1 67762:1 69128:1 69506:2 69696:532 
1 269:3 2593:1 2597:1 2599:1 2601:1 2602:2 2603:2 2605:2 2606:2 2610:1 2700:1 3429:1 3617:4 3618:1 3623:3 4272:8 4345:1 5156:1 5765:1 6516:1 7590:6 9313:11 9642:1 10052:15 10132:1 11440:1 11533:1 11901:1 12326:1 12328:1 12330:1 12331:1 12681:1 12989:1 13006:1 13050:1 13231:1 13245:1 13800:1 14171:14 14938:6 15919:3 16434:1 17762:1 19120:3 19444:1 19809:3 20382:1 20581:1 20743:1 21686:2 21687:1 21688:1 21695:1 21696:1 21700:4 21826:1 22242:1 22614:1 22616:3 22619:3 23896:2 24356:1 24621:1 25564:2 28294:2 28481:8 29002:1 29003:1 29006:1 29207:11 29386:1 29841:1 29844:2 29848:1 29849:1 29850:1 30098:1 30521:2 30667:2 33087:1 33573:2 33852:1 34002:1 34271:1 34555:2 34950:1 35213:1 37167:1 37585:1 37589:1 37591:2 37595:1 38381:1 38623:1 38626:1 39220:3 39279:1 39622:1 39626:1 39628:1 39648:1 39920:1 39937:1 40239:3 40551:1 40570:3 40782:1 40931:1 41655:1 41725:1 41866:1 42807:1 42878:1 44339:8 45512:2 46698:1 47131:1 47624:1 47626:2 47630:1 47941:1 48540:1 48542:1 48545:1 48547:4 48551:1 49055:1 49403:4 50333:1 53251:1 54402:9 54634:1 55169:1 55198:1 55304:1 55306:1 55310:1 55786:1 56193:1 56654:1 56844:1 56969:1 57167:1 57557:1 57635:1 57659:1 59268:15 59564:3 59971:15 60397:1 61632:1 62281:1 63487:1 64017:1 64041:1 64062:4 64552:1 64583:2 64737:1 65485:1 65486:4 65487:1 65490:1 66082:2 66678:2 66685:2 67568:1 68119:2 68135:1 69398:1 69506:4 69696:785 
1 269:1 2602:1 2603:2 3615:1 3617:1 4272:1 5156:1 5373:1 5511:1 6499:1 7590:2 9313:2 9642:1 10052:5 12326:1 13006:1 14171:2 15919:1 17762:1 18326:1 19120:2 19809:2 21087:1 21695:1 22614:1 22619:1 27232:1 28481:3 29207:3 29843:1 29847:1 29851:1 31560:1 34413:1 37588:1 37595:1 38381:2 39626:1 40239:1 40678:1 42675:1 44339:3 47630:1 47945:1 48547:1 49055:1 50028:1 50333:1 53672:1 53990:1 54402:4 55310:1 59268:1 59308:1 59971:3 63753:1 64737:1 65486:1 68689:1 69506:1 69696:143 
1 269:1 1057:1 1119:1 2601:1 2602:3 2603:3 2605:2 2606:3 2607:2 2608:1 2700:1 3615:2 3617:2 3618:2 3623:7 3625:1 3626:1 4272:15 4534:2 5511:1 5879:1 7590:8 7961:2 8189:1 8823:1 9313:20 9589:1 10052:22 10570:1 11441:2 12326:1 12330:1 12331:5 13231:3 13587:1 13738:1 14171:20 14938:3 15919:1 17762:5 17874:1 18146:1 18325:1 19120:6 19809:4 19935:1 20382:1 21418:4 21695:1 21700:3 22255:1 22614:1 22617:1 22619:2 23896:4 25507:2 26853:3 28070:2 28294:9 28481:5 29006:1 29207:18 29847:1 29848:2 29850:3 29854:2 29855:2 30264:1 30578:1 30591:1 30666:2 30667:2 31243:1 31893:1 33647:1 33778:1 34495:1 34707:1 36366:1 37578:2 37586:2 37591:1 37593:1 37595:4 37615:1 38021:1 38381:6 38430:1 38631:1 39047:1 39192:1 39220:1 39622:1 39623:1 39625:2 39629:2 40236:1 40239:1 40306:1 40782:1 41368:1 41369:1 42576:1 42878:2 43067:1 44038:3 44339:9 44960:1 46625:2 46650:1 46660:1 46938:1 47127:1 47131:3 47628:1 47630:1 47631:1 47941:1 47949:1 48032:1 48541:1 48545:3 48547:6 48548:3 48550:2 49403:2 50333:1 51100:1 53101:1 54402:10 54630:1 54960:2 55312:1 55315:2 55318:1 55607:2 55684:1 56193:1 57156:1 57157:1 57160:2 57167:1 59268:8 59564:2 59971:15 60876:1 61291:1 61399:1 61499:1 62281:6 63487:1 64017:5 64062:5 64715:1 65097:2 65141:2 65454:1 65486:2 65490:1 65491:3 65949:2 65952:1 66094:2 66114:2 66486:1 67075:1 68135:1 68557:1 69046:3 69506:6 69696:811 
1 269:2 402:1 1057:1 1436:1 2593:1 2596:1 2597:1 2602:1 2603:4 2606:2 2607:5 2609:4 2611:1 2612:1 2700:1 2706:1 3615:1 3617:3 3618:2 3621:2 3623:7 3625:2 4082:1 4272:18 4556:1 4890:1 4891:1 5156:1 5186:1 5828:1 5879:4 7004:1 7097:1 7590:20 7961:3 8823:1 9079:1 9313:23 9499:1 10052:43 11441:1 12326:1 12328:1 12330:3 12331:8 12371:1 13006:1 13233:1 14084:1 14171:26 14938:8 14970:1 15061:1 15250:1 15410:2 15636:2 15919:2 17034:1 17762:5 17800:3 17851:1 17872:1 17876:1 18325:4 18615:1 19042:1 19120:8 19776:1 19809:7 20033:1 20382:1 20739:1 20743:1 21418:1 21686:2 21687:4 21688:1 21696:1 21697:2 21700:2 21701:1 21972:1 22108:1 22242:1 22614:1 22616:2 22617:1 22619:3 22620:2 23216:1 23896:6 24157:1 24291:1 24621:1 25069:1 25168:1 25769:1 25884:1 26165:1 26699:1 26951:1 27565:1 27566:1 27570:1 27692:1 28294:12 28481:9 28747:1 28995:1 28997:1 29000:1 29002:1 29003:1 29006:1 29207:21 29845:1 29847:1 29848:3 29849:2 29850:3 29854:2 30577:1 30591:1 30667:4 30668:1 31684:1 31840:1 32358:1 33087:1 33532:1 33778:1 33781:1 34944:1 34953:1 36356:1 36566:1 36710:2 37164:1 37577:1 37578:1 37579:3 37582:1 37583:1 37585:1 37586:3 37589:1 37591:2 37593:2 37594:1 37595:9 38303:1 38381:6 38396:1 38623:3 38626:2 38628:1 38635:1 39220:2 39619:1 39621:1 39622:1 39625:1 39626:2 39881:1 40236:1 40239:2 40549:1 40551:1 40653:1 41370:1 41549:1 42576:1 42654:1 42660:1 42801:1 43516:1 43528:1 44038:1 44339:5 46648:1 46650:2 46845:1 46948:1 47131:3 47463:1 47473:1 47630:1 47941:2 48027:1 48032:3 48545:5 48547:9 48548:4 48550:4 48862:1 49403:10 49419:1 50333:1 50371:1 51620:1 53804:1 54093:1 54233:1 54402:20 55305:5 55312:1 55607:1 56124:1 56511:1 56518:1 56844:1 57154:1 57156:1 57158:1 57160:2 57162:1 57167:3 57453:1 57648:1 59268:25 59282:1 59564:2 59971:23 60367:1 60878:1 61447:1 61599:1 62281:3 62421:1 63487:1 63750:2 63756:1 64017:7 64062:6 64583:1 64737:5 64771:1 65485:1 65488:1 65490:2 65505:1 65859:1 65956:1 66081:2 66815:1 67080:1 67081:1 67082:1 67453:1 68563:1 68789:1 69027:1 69046:2 69125:2 69506:9 69696:1282 
1 2597:1 2602:2 2606:2 2609:2 2700:1 3617:1 3621:1 3623:1 4272:3 4371:1 5374:1 6516:1 7590:5 9313:5 10052:7 11533:1 12243:1 12324:1 12326:1 12331:3 13244:1 13245:1 13323:1 14171:12 14938:2 15636:1 18328:1 19809:2 20382:1 21687:1 21688:1 21691:1 21699:1 21700:1 22616:1 23216:2 28294:1 28481:1 29207:6 29845:1 31840:1 37591:1 37595:1 38626:1 40551:1 41865:1 42369:1 43204:1 44339:3 46650:1 47463:1 47630:2 48545:1 48547:3 48548:2 48550:1 49403:3 50333:1 54402:2 55310:1 57162:1 57167:2 59268:8 59564:2 59971:7 60881:1 62281:1 62675:1 64017:3 64062:2 64790:1 65487:2 65505:1 65956:1 66082:1 66842:1 67880:1 69125:1 69506:1 69696:278 
1 2597:1 2599:1 2602:1 2603:2 2607:1 2609:1 2611:1 2701:1 3621:1 3622:1 3623:2 3649:1 4082:2 4272:11 5511:4 6499:1 6776:1 7590:4 7738:1 8670:1 9112:1 9313:8 10052:16 10799:4 11125:1 11426:1 11441:2 12326:1 13050:1 14171:7 14938:2 14970:2 15472:1 16353:1 17762:4 17851:1 18328:1 18743:1 19120:8 19776:1 19809:2 20076:1 20382:1 20743:1 21687:2 21696:1 21697:2 21700:1 23345:1 23896:4 26140:1 28294:3 28707:1 28870:1 28995:1 29006:1 29207:6 29848:2 29849:1 29855:1 29856:2 30666:1 30667:2 30668:1 32358:3 33852:1 34189:1 36356:1 37588:1 37595:4 38381:8 38623:1 38833:1 39273:1 39619:2 39622:2 39623:4 41506:2 41725:1 42365:1 42797:1 43167:1 43199:1 43757:1 44038:1 44339:4 46625:1 46642:1 47624:1 47626:1 47630:1 47941:1 47946:1 48032:1 48545:1 48548:1 48550:3 48913:1 49403:4 50097:4 50333:1 51613:2 52590:1 52983:1 54402:7 55305:1 55312:1 55608:1 56511:1 56517:1 57161:1 57167:1 59268:8 59282:1 59971:9 60115:1 60602:1 60852:1 60878:1 62287:1 62288:1 63298:2 63487:1 63753:1 64553:1 64642:1 64737:4 65012:2 65485:1 65486:1 65487:1 65489:1 65490:1 66562:1 67453:2 68114:1 68499:1 68504:1 69506:2 69696:554 
1 269:2 402:2 1119:1 1944:1 2601:1 2602:3 2603:5 2607:1 2612:4 2700:1 3325:1 3430:1 3615:1 3617:4 3623:4 4070:1 4083:1 4084:1 4272:13 4890:2 4894:1 5510:1 5950:2 6499:2 6776:1 7590:12 9313:12 9445:1 10052:18 11441:2 12326:1 12328:2 12331:6 13050:1 13132:1 14171:18 14900:1 14938:1 15027:1 15785:1 15919:2 17374:1 17800:1 17851:1 18326:1 19120:7 19445:1 19776:1 19809:5 19956:1 20382:1 21686:1 21692:1 21695:3 21697:3 21698:1 21700:1 21887:2 22108:1 22110:1 22616:1 22617:1 22619:2 22714:1 22820:1 23896:2 26140:1 26165:1 27158:1 28294:8 28481:7 28747:1 28995:1 29207:12 29387:1 29848:4 29849:1 29850:4 29855:2 30521:1 30577:1 30589:1 30591:1 30627:1 30667:2 32358:2 33777:1 33996:1 34445:1 34557:1 35757:1 36356:1 36366:3 37578:2 37588:1 37591:3 37593:1 37595:4 38025:1 38381:11 38623:2 38626:1 38633:1 39220:2 39619:2 39623:2 39624:1 39626:2 39686:1 39920:1 40102:1 40239:2 40546:1 41122:1 41483:1 41506:1 41866:2 42369:1 42576:1 42804:1 42878:1 43579:1 43625:1 44038:2 44339:10 44702:1 45753:1 46642:1 46656:1 47131:4 47624:2 47625:1 47630:2 47633:1 47935:1 47941:4 48540:1 48541:1 48547:7 48548:3 48841:1 49140:1 49403:7 50333:1 51613:6 51654:2 51660:3 53798:1 54402:13 55239:2 55304:1 55308:1 55319:1 55607:1 55664:1 55786:1 56511:1 56844:1 57162:2 57164:1 57167:1 59268:14 59587:1 59971:17 60602:1 60881:1 60964:1 61499:1 61969:1 62288:1 62421:2 62877:2 63116:1 63243:2 63299:1 63416:1 63756:2 63775:3 64017:3 64062:1 64582:1 64737:4 64869:2 65417:1 65485:1 65486:2 65489:1 65490:4 65491:1 68495:1 69046:1 69506:4 69696:835 
1 402:1 1758:1 2599:1 2602:1 2603:1 2606:1 2607:1 2609:1 2703:1 3616:1 3623:4 4223:1 4272:2 4556:1 7590:2 9313:5 10052:7 11533:1 12326:1 12331:1 13050:1 14171:6 14553:1 15365:1 17762:1 19120:2 19809:2 21418:1 21687:1 21695:1 22614:1 28294:2 28481:2 28587:1 29207:8 29841:1 29845:1 29850:1 32356:1 34189:1 37577:1 37578:1 37582:1 38381:1 38626:1 38633:1 39220:1 39626:1 44339:3 46648:1 46650:1 47131:1 47464:1 47630:2 48545:1 48547:1 48548:2 49403:2 50139:1 50333:1 54402:8 56844:1 57155:1 57167:1 57635:1 59268:2 59971:6 60360:1 60418:1 61172:1 62281:1 62675:1 62771:1 64017:1 64737:1 65485:1 65486:1 65505:1 65956:1 67077:1 67880:1 68789:1 69125:1 69696:248 
1 2596:2 2602:1 2603:1 2609:1 3618:1 3623:1 3626:1 4082:1 4272:4 7590:3 9313:3 10052:4 12326:1 12331:2 14171:5 14938:1 17851:1 19120:1 19776:1 19809:2 21695:1 21701:1 22614:1 23896:1 28294:5 28481:2 28995:1 29207:4 29848:1 29850:1 30668:1 31243:1 32358:1 35723:1 36356:1 38072:1 39622:1 41369:1 42805:1 44339:1 46642:1 46650:1 47131:1 47630:1 47941:1 48545:1 48547:2 49403:1 50333:1 51847:2 54402:3 56511:1 57160:1 59268:5 59971:6 61172:1 62281:1 64017:2 64062:1 64737:1 65490:3 65491:1 67076:1 69696:231 
1 2015:1 2599:1 2602:1 2603:1 2606:1 2609:1 3615:1 3623:2 4082:1 4272:4 4890:1 4897:1 7590:6 9313:4 10052:7 11441:1 12326:2 12331:4 13050:1 14171:5 14938:1 15637:1 17851:1 19120:1 19776:1 19809:3 20448:1 21696:1 22614:2 22620:1 23896:1 28294:1 28481:3 28747:1 28995:1 29207:5 29839:1 29848:1 29850:1 30667:1 32358:1 36356:1 37579:1 37586:1 37595:2 38381:1 39622:1 43167:1 44339:3 44702:1 46884:1 47131:1 47630:2 47941:1 48547:2 49403:1 50333:2 50371:1 54402:4 55310:1 55664:1 57635:1 59268:2 59971:5 62281:1 62985:1 64017:2 64737:1 65417:1 65487:1 65490:1 69506:1 69696:233 
1 384:1 1404:2 2593:1 2599:2 2601:2 2602:5 2606:1 2607:3 2609:3 2611:3 2612:1 2700:1 3429:1 3621:1 3623:3 3625:2 3626:1 3627:1 4272:14 4897:1 5029:1 5760:1 5830:1 6368:1 6514:1 6614:1 6773:1 7590:12 8383:2 8384:1 9313:16 10052:31 10799:2 11114:1 11725:1 11901:1 12326:1 12331:7 12989:1 13235:1 13240:1 13245:1 13264:1 13800:1 14171:21 14938:3 14970:1 15789:1 17223:1 17762:4 17800:1 18328:1 19036:2 19120:4 19444:1 19809:3 20448:1 21418:1 21499:1 21686:1 21687:5 21689:1 21697:1 21699:1 21700:1 22614:2 22616:1 22619:1 22620:1 23215:2 23216:1 23896:3 26140:1 27291:1 28294:5 28481:5 28995:1 29207:13 29845:1 29849:1 29850:1 29852:2 29854:1 29855:1 29856:1 30521:2 30668:3 32823:1 33535:1 33602:1 34265:1 34548:1 34559:1 35213:1 35818:1 36566:2 37390:1 37578:3 37579:3 37582:1 37583:2 37586:2 37591:1 37594:1 37595:1 38381:3 38623:3 38626:1 39220:3 39278:1 39387:1 39623:2 39625:1 39648:1 40111:1 40542:1 40848:1 42801:3 42807:1 43579:2 44038:1 44308:1 44339:10 44563:1 44702:1 44849:1 45141:1 45687:1 46625:1 46648:1 47131:1 47259:1 47575:1 47624:1 47625:1 47630:1 47631:2 47632:2 47935:1 48542:1 48545:4 48547:6 48548:2 48551:1 49403:10 49706:1 50333:1 51118:2 51613:2 51654:1 52220:1 53642:1 53796:2 54402:13 54705:1 55304:1 55306:1 55310:1 56511:3 57157:2 57161:2 57164:1 57167:3 57485:1 57557:1 57635:1 58760:1 59243:1 59268:15 59971:23 61415:1 62064:1 62258:1 62281:2 62288:1 62675:1 62985:1 63298:1 63756:1 63759:3 64017:5 64062:3 64594:2 64715:1 64737:4 65417:1 65482:1 65485:2 65486:3 65487:2 65489:1 65490:2 65505:1 65949:1 66071:1 66484:1 67080:1 67272:1 67453:1 67472:1 67840:2 69046:2 69125:1 69506:3 69696:1045 
1 577:1 2520:1 2602:3 2607:3 2609:1 2706:1 3615:1 3623:2 4272:11 4371:1 5156:1 5511:1 6210:1 6513:1 7590:6 7961:3 9313:11 10052:21 12326:1 12328:1 12330:1 12331:3 12371:1 13050:2 13233:1 13235:1 13245:2 13738:1 14157:1 14171:13 14938:1 15321:1 15636:1 16105:1 16429:1 17762:3 18328:1 19120:8 19809:3 20140:1 21419:2 21687:2 21688:2 21691:1 21700:2 21701:1 23896:3 24621:1 25470:1 27568:1 28294:3 29006:1 29207:10 29839:1 29845:1 29850:1 29855:3 30591:1 30667:1 30668:1 30756:1 31436:1 32358:1 34187:1 37382:1 37577:1 37578:1 37579:3 37583:1 37586:1 37588:1 37593:3 37594:1 37595:3 37899:1 38021:1 38381:4 38394:2 38565:1 38628:1 38643:3 39220:1 39619:1 39621:1 39622:2 39623:1 39625:1 39626:1 40279:1 40678:1 41506:1 42573:1 42800:1 42878:1 43204:1 44038:1 44339:8 46625:1 46650:1 47131:1 47471:1 47624:1 47628:1 47630:1 47632:2 48026:1 48541:2 48543:1 48547:2 48548:2 48550:2 49403:1 50333:1 53396:1 54402:8 55305:1 55315:1 55620:1 55786:1 56328:1 56333:1 56511:1 57154:1 57156:2 57160:1 57161:1 57167:1 59268:8 59308:1 59637:1 59971:8 60175:1 61599:1 62281:2 63487:1 63973:1 64017:2 64062:7 64737:2 65485:1 65486:2 65487:1 65491:1 65505:1 66486:1 66817:1 67015:1 68501:1 68689:1 69125:1 69506:3 69628:1 69696:571 
1 42:1 269:2 307:1 402:1 1404:1 1436:2 1758:2 1860:1 1945:2 2167:1 2400:1 2404:1 2414:1 2529:1 2593:10 2596:3 2597:1 2599:1 2601:3 2602:5 2603:15 2605:2 2606:12 2607:9 2608:1 2609:6 2611:2 2612:2 2613:1 3430:1 3611:1 3612:2 3615:3 3616:4 3617:8 3618:7 3621:1 3622:6 3623:32 3625:2 3626:3 3627:2 3642:1 3645:2 4082:1 4083:1 4272:67 4556:1 4890:3 4891:1 4896:2 4897:1 5371:2 5372:2 5373:2 5375:1 5511:5 5514:1 5549:1 5765:1 5879:2 5907:1 5950:1 6320:1 6370:1 6512:1 6513:1 7330:1 7463:1 7590:47 7961:3 7963:1 8155:1 8339:3 8385:2 8819:1 9313:81 9377:1 9526:1 9641:1 10052:144 10597:1 10799:1 11006:1 11030:1 11039:1 11048:1 11256:2 11441:2 11442:1 11533:2 11633:1 11657:1 11683:1 11718:2 11831:1 11912:2 11934:1 12324:2 12326:3 12328:8 12330:2 12331:21 12337:1 13006:4 13050:4 13235:1 13240:7 13245:6 13321:1 13710:1 13738:1 13800:1 13802:1 13882:1 14104:2 14109:1 14113:1 14171:96 14415:1 14938:26 14970:1 15027:1 15029:4 15250:1 15290:1 15365:1 15636:2 15789:1 15919:2 15920:3 16173:2 16254:1 16322:2 16353:2 16842:1 17762:17 17800:3 17875:2 17977:1 18281:2 18325:2 18326:3 18327:1 18328:1 18394:3 18403:1 18555:1 18615:1 18977:2 19120:32 19624:1 19809:36 19842:1 19917:1 19935:1 20033:1 20250:1 20375:1 20382:2 20591:1 20743:3 20745:2 21059:1 21187:1 21418:2 21687:10 21688:2 21691:1 21692:2 21695:2 21696:1 21697:12 21698:1 21699:2 21700:5 21701:1 21959:1 21972:2 22105:1 22109:1 22242:5 22614:3 22616:3 22617:1 22619:4 22620:3 23215:2 23216:3 23623:2 23634:1 23807:1 23896:16 24171:1 24576:1 24577:1 24610:1 24621:8 25570:2 25608:1 25943:1 26259:1 26394:1 26853:1 27375:1 27568:3 27651:2 27692:1 27778:1 28068:1 28070:1 28267:1 28294:44 28481:15 28740:1 28741:2 28834:1 28925:1 29000:3 29002:3 29003:6 29006:2 29207:82 29428:1 29463:1 29649:1 29839:2 29843:2 29844:1 29845:1 29847:1 29848:12 29849:9 29850:23 29854:4 29855:7 30591:1 30666:1 30667:11 30668:3 31225:1 31243:2 32358:4 32640:1 32661:1 33087:6 33240:1 33243:1 33532:1 33852:1 33927:2 33985:1 34189:3 34230:1 34265:1 34466:1 34676:1 34707:1 35076:1 35213:2 35401:1 35594:1 35831:1 36206:1 36566:1 36721:1 36895:1 37167:1 37382:4 37577:5 37578:6 37579:11 37580:3 37582:6 37583:8 37584:1 37585:3 37586:6 37588:4 37589:3 37591:7 37593:1 37594:1 37595:13 37752:1 37899:1 38306:1 38381:20 38394:1 38623:4 38626:1 38631:1 38633:1 38635:3 38643:3 39127:1 39158:1 39220:13 39619:7 39622:3 39623:5 39624:2 39625:1 39626:3 39629:1 39647:1 39648:2 40111:1 40236:2 40239:2 40570:1 40678:3 41114:1 41191:1 41366:1 41367:1 41369:2 41483:2 41506:5 41549:1 41801:1 41866:1 41885:1 42028:1 42365:1 42369:3 42573:1 43201:1 43500:2 43515:1 43516:2 43757:1 44033:3 44038:2 44166:1 44339:50 44429:1 44669:1 44771:1 44805:1 44849:1 44962:1 45140:1 45154:1 45257:1 45400:1 45753:1 46024:1 46114:1 46625:1 46642:3 46648:3 46649:1 46650:7 46656:1 46660:5 46684:1 46783:1 46884:2 46948:1 47127:1 47131:22 47181:1 47319:1 47464:1 47473:2 47624:9 47626:8 47628:5 47630:11 47632:2 47938:1 47941:9 47942:1 47945:1 47949:1 48027:2 48032:2 48249:1 48255:1 48466:2 48539:1 48540:2 48541:6 48542:6 48543:6 48545:4 48546:1 48547:28 48548:5 48550:8 48551:5 48756:1 49055:2 49270:1 49403:25 49767:2 49774:2 50172:1 50333:1 50457:1 50795:1 51372:1 51720:1 51815:6 51847:2 52550:1 52824:1 52879:1 53101:1 53396:3 53672:1 53796:2 54356:6 54402:81 54634:2 54681:1 55198:1 55304:8 55305:4 55306:2 55310:7 55312:5 55315:4 55319:3 55636:1 55728:1 55790:1 55793:1 56027:1 56124:1 56193:2 56326:1 56329:1 56331:3 56333:1 56348:1 56372:1 56378:2 56457:1 56517:1 56619:1 56844:4 57041:2 57154:3 57156:3 57157:1 57160:5 57161:1 57162:3 57163:3 57164:1 57167:2 57453:1 57635:1 57938:1 58221:2 58346:1 58517:1 59124:2 59243:1 59268:58 59308:3 59359:2 59564:5 59738:1 59935:1 59954:1 59971:84 60115:2 60172:1 60360:1 60364:1 60423:1 60438:1 60602:3 60647:1 60877:1 61359:1 61706:1 61873:1 62072:1 62281:13 62288:3 62421:1 62529:1 62675:1 62775:1 63298:1 63299:4 63484:2 63487:2 63621:1 63750:1 63753:2 63756:2 63759:1 63834:1 64015:2 64017:17 64018:2 64062:22 64553:1 64642:1 64737:18 64776:2 64793:1 65097:1 65417:1 65485:2 65486:20 65487:8 65489:3 65490:5 65491:6 65505:2 65606:1 65700:1 65791:1 65949:2 65952:1 66486:2 66562:1 66566:1 66651:1 67015:1 67372:2 67453:5 67762:1 67900:1 68008:2 68111:1 68115:1 68116:1 68120:1 68135:2 68319:1 68465:2 68495:1 68498:1 68689:3 68789:1 68953:1 69036:1 69037:1 69039:3 69125:2 69340:1 69506:33 69696:4449 
1 1758:1 2602:1 2603:4 2607:1 2700:1 3617:1 3622:1 4272:3 5373:1 7590:3 8869:1 9313:1 10052:6 12326:1 12328:1 12331:1 14171:6 14938:1 15029:1 16994:1 17384:1 19809:2 19935:1 19948:1 20844:1 26259:1 28294:4 28707:1 28867:1 29003:1 29207:5 29848:2 29855:1 34189:1 36356:1 37579:1 37583:1 37591:1 38626:1 38628:1 39220:1 44339:5 46643:1 47624:1 47626:1 47630:2 47724:1 47941:2 47946:1 48545:1 48547:1 49403:2 50333:1 51613:1 54402:5 55310:1 56333:1 56844:1 57167:1 59268:3 59971:7 63756:1 64017:1 64737:2 65486:2 65490:1 69506:1 69696:236 
1 744:1 2409:1 2599:1 2601:1 2602:2 2603:3 2606:3 2607:3 2609:5 2611:1 2701:2 2704:1 3429:1 3614:1 3615:3 3618:2 3621:1 3622:1 3623:10 3626:1 3770:1 4083:1 4272:17 5765:2 6210:1 7590:16 7963:2 9313:11 9436:1 9838:1 10052:36 11375:1 11441:1 11533:1 11711:1 11712:1 11912:1 11924:1 12324:1 12326:1 12328:3 12330:2 12331:8 13231:2 13233:1 13321:1 13800:1 14171:28 14528:1 14938:7 14971:1 14972:2 15027:1 15029:2 15410:2 15610:1 15636:2 15781:1 16322:1 17562:1 17875:1 18326:1 18329:2 19120:5 19809:9 20033:1 20382:1 20581:2 21059:2 21687:6 21693:2 21697:1 21698:1 22242:1 22616:2 22620:2 23215:1 23896:5 25570:1 25608:2 28294:10 28481:4 29000:1 29207:24 29840:1 29844:1 29845:1 29847:2 29848:2 29850:7 29855:1 30667:3 30668:2 32358:1 33343:1 33852:1 34271:1 34950:1 35213:1 36356:2 36709:1 37579:3 37582:1 37583:5 37586:1 37594:1 37595:6 38381:2 38623:11 38626:1 38639:1 38694:2 39220:4 39619:2 39621:1 39626:2 40905:1 41549:3 41587:1 41801:1 41866:1 43515:1 44038:2 44339:5 44700:1 45753:1 46650:1 46660:1 47085:1 47126:1 47131:6 47624:2 47626:1 47630:1 47632:1 47941:1 48032:2 48466:1 48542:1 48545:3 48547:9 48548:4 48550:2 48551:1 49403:16 50069:2 50333:1 52393:1 54402:25 54634:2 55305:1 55306:2 55319:2 56193:2 56333:1 56516:1 56844:1 57162:1 57164:1 57167:4 57557:1 59268:22 59282:1 59564:3 59971:24 59992:2 60602:1 60878:1 61873:1 62281:2 62675:1 63299:1 63753:1 63756:1 63760:1 64015:1 64017:6 64018:1 64062:6 64737:4 64771:1 65417:1 65486:2 65487:1 65488:2 65490:4 65491:2 65505:3 66081:2 67453:3 67469:1 68135:2 69125:3 69127:1 69506:5 69533:2 69652:1 69696:1215 
1 398:2 402:1 2593:2 2597:1 2599:1 2602:1 2603:4 2607:2 2609:2 2610:1 2612:1 3617:1 3622:2 3623:4 4272:7 4891:1 4894:1 4896:1 4897:1 4943:1 7590:12 8339:2 9313:9 9839:2 10052:24 11831:1 12326:1 12328:2 12331:8 12951:1 13050:2 14157:1 14171:18 14938:5 14970:1 15029:1 15290:1 16254:2 17762:5 18329:1 19120:10 19809:3 19964:1 20382:1 20447:1 21418:1 21687:2 21695:2 21697:2 21700:1 22616:2 22619:2 22620:1 22809:1 23896:2 24191:1 24291:1 24621:1 25052:1 25671:1 26259:1 27568:1 27762:1 28294:6 28481:6 28741:1 28746:1 29006:1 29207:12 29839:1 29844:2 29845:2 29847:1 29848:3 29850:1 29854:1 29855:1 29856:1 30667:1 30668:1 31226:1 33343:1 33852:1 34189:1 34230:1 34347:2 34865:1 36206:1 37577:1 37579:3 37585:1 37586:1 37588:1 37595:1 38381:4 38626:2 38643:1 39220:4 39619:1 39622:2 39623:1 39626:4 39629:1 40236:1 40551:1 40570:1 40782:1 41866:1 44339:7 46650:2 47126:1 47131:1 47464:1 47626:2 47630:1 47935:1 47938:1 47941:3 48032:1 48539:1 48541:2 48547:8 48548:3 48550:1 49403:4 49418:1 49767:2 50069:1 50333:1 51003:2 53672:1 53840:1 54402:21 55305:2 55312:3 55319:1 56517:1 56844:1 57158:1 57167:2 57582:1 57603:1 59268:10 59564:3 59971:17 60514:1 61172:1 61448:1 62281:1 62675:1 62985:1 63299:1 63328:1 63487:1 64017:7 64062:2 64552:1 64737:2 65333:1 65486:4 65487:1 65488:1 65505:2 65606:1 65956:1 66486:1 66587:1 67210:2 67453:1 68115:2 69125:2 69506:6 69696:735 
1 1404:1 2601:1 2602:1 2603:1 2606:1 3623:2 7590:4 7961:1 9313:3 10052:1 12326:1 12328:1 14171:1 16371:2 17224:1 19809:2 21690:2 21699:1 22616:1 28294:1 28481:1 29207:3 29339:1 29839:1 29848:1 29850:1 37578:1 40825:1 42047:1 44339:3 44563:1 46884:1 47131:1 47626:1 47630:1 47941:1 49403:1 50333:1 50521:2 54402:5 57156:1 57161:1 59268:3 59971:5 61101:2 64062:2 66082:1 69696:192 
1 38:3 44:2 307:1 402:1 1119:1 1529:1 2593:2 2596:2 2597:1 2599:1 2602:2 2603:6 2605:1 2607:3 2609:2 3612:1 3615:1 3616:4 3617:2 3618:1 3622:5 3623:7 4272:22 4617:1 5879:4 6904:1 7463:2 7590:7 7961:1 8339:1 9313:15 9387:1 10052:29 11441:2 11912:3 12326:3 12330:1 12331:2 12371:1 13006:1 13231:2 13233:1 13265:1 14171:25 14938:11 15565:1 15636:1 15661:1 15807:2 16105:1 16324:1 17762:3 17800:1 17870:1 18325:3 18778:1 19120:4 19356:1 19809:10 19935:1 20033:1 20742:1 20743:1 21418:1 21499:1 21686:1 21687:5 21688:1 21689:1 21697:2 21699:1 21700:4 22242:1 22617:1 23216:1 23807:1 23896:3 24650:1 25508:1 25671:1 26578:1 26999:1 27154:1 27317:1 28067:1 28294:5 28481:2 29002:6 29006:2 29207:26 29309:2 29839:3 29847:1 29848:1 29849:2 29850:4 29855:3 30667:3 30830:1 31840:1 32746:1 33087:1 33739:2 33852:1 34189:1 34262:1 34269:1 34466:4 34598:1 36208:2 36339:1 37579:1 37583:2 37585:2 37586:2 37592:1 37595:5 37990:2 38021:1 38381:1 38457:1 38643:1 39220:5 39623:2 39625:1 39626:1 40570:1 40923:1 41506:2 41725:1 42369:1 42506:1 42654:2 43199:1 43529:2 43579:2 44028:1 44038:1 44339:16 44702:1 44848:1 45722:1 45898:1 46401:3 46645:1 46883:1 46884:1 47131:4 47184:1 47626:2 47628:1 47630:5 47941:1 48032:2 48542:2 48543:1 48545:6 48547:1 48548:1 48550:5 48551:5 49053:1 49403:1 49767:1 50333:1 50371:1 51613:1 51654:1 52542:1 52983:1 54402:24 54630:1 55304:1 55306:3 55308:1 55312:2 55664:1 55786:1 56326:1 56331:2 56536:1 56844:1 57156:1 57160:1 57167:1 57635:1 58346:3 59268:24 59564:2 59971:24 61873:2 61972:1 62281:5 62421:1 63298:2 63490:1 63651:1 63750:2 63753:2 64018:1 64062:5 64737:4 64772:1 64776:1 65077:1 65417:1 65486:7 65487:1 65489:2 65490:1 65491:2 66114:1 66678:1 66998:1 67075:2 67080:1 67762:1 69039:2 69040:1 69506:8 69696:1224 
1 38:1 44:1 1404:1 1702:1 2596:3 2601:1 2602:1 2603:2 2606:2 2607:3 2608:2 2609:2 2612:1 2700:1 2870:1 3614:1 3616:2 3617:2 3622:2 3623:2 4272:12 5510:1 5879:1 6352:1 7590:6 8934:1 9313:9 9387:1 9641:1 10052:13 10461:1 11158:1 12326:2 12328:1 12330:2 13050:1 13231:1 14171:14 14938:4 15029:3 15638:1 15807:1 17762:2 17872:2 17977:1 18325:1 19120:4 19356:1 19809:3 20033:1 20746:1 21030:1 21418:1 21691:1 21695:1 21700:1 22614:1 22616:1 25508:1 26578:1 27608:1 28294:10 28481:3 29002:2 29003:1 29207:11 29848:4 33739:2 33781:1 34342:1 34466:2 36208:1 37579:1 37585:1 37586:3 37591:1 37595:1 37672:1 37818:1 37990:1 38381:8 38623:1 38639:1 39220:1 39624:1 39625:1 39626:2 40824:1 41506:2 42653:1 43516:1 43579:2 44028:1 44033:1 44038:3 44339:13 44924:1 46401:1 47624:1 47626:6 47628:1 47630:1 47941:1 48032:1 48540:1 48545:4 48547:1 48550:1 49348:2 49403:2 49419:2 50333:1 51613:1 52542:1 54402:7 54604:1 54630:1 55786:1 56193:1 56331:1 57159:1 57165:1 57167:1 58346:1 59268:6 59971:22 60438:2 61972:1 62281:2 63750:1 63753:2 63761:1 64062:2 64737:4 64772:1 65485:1 65486:3 65491:1 66082:1 66114:1 66486:2 67075:1 68120:1 68128:1 69046:1 69696:739 
1 38:1 44:1 717:1 1404:2 1436:1 1529:1 2593:1 2596:1 2602:1 2603:2 2606:2 2609:6 2700:1 3616:1 3618:1 3622:1 3623:2 3624:1 3625:1 4223:1 4272:18 4371:1 5879:3 6499:1 6516:1 7463:1 7590:9 7963:1 8670:1 9313:15 9387:1 10052:30 11712:1 12324:1 12326:2 12330:2 12331:1 13231:1 13236:1 13245:1 13316:1 14171:23 14938:7 15636:2 15638:2 15807:1 16322:1 17800:3 17875:2 18325:2 18328:1 19120:9 19809:5 20033:1 20382:2 20666:1 20739:1 20743:1 21415:1 21688:1 21692:2 21695:1 21697:4 21700:5 21701:2 22242:1 22616:1 22620:1 23282:2 23635:1 23896:2 24157:2 24621:3 25610:1 26578:1 27377:1 28294:8 28328:1 28481:3 29002:3 29006:2 29048:1 29207:12 29848:2 29850:2 30591:1 30667:2 30830:1 31357:1 32746:1 33739:2 34269:1 34466:1 36208:1 36709:1 37578:3 37579:1 37582:1 37583:3 37585:1 37586:2 37588:1 37591:2 37593:1 37595:5 37990:1 38381:3 38640:1 39220:1 39619:2 39622:3 39623:1 39625:2 39626:1 40570:1 41506:2 42366:1 42653:1 42878:1 43201:1 43204:1 43579:2 44028:1 44038:1 44166:1 44339:13 44429:1 44676:1 45840:1 45898:1 45971:1 46401:1 46625:1 46650:2 47314:1 47463:1 47469:1 47624:1 47626:3 47628:1 47630:4 47941:1 48032:1 48485:1 48540:2 48542:1 48545:5 48547:3 48550:3 48551:1 49419:1 50179:1 50333:1 50371:1 53527:1 53804:1 54402:7 54630:1 54631:1 55149:1 55304:1 55312:3 55786:1 56331:1 56517:1 57156:1 57158:1 57161:2 57167:2 57173:1 58604:1 59268:17 59971:16 60141:1 60172:1 60296:1 61172:1 61972:1 62281:2 62797:1 63298:1 63299:1 63398:1 63487:2 63651:1 63750:1 63753:2 64015:1 64017:1 64018:1 64062:6 64553:1 64737:6 64772:1 65333:1 65485:1 65486:4 65487:2 65490:2 65491:1 66082:1 66114:1 66351:1 67075:2 67077:1 68111:1 69506:5 69696:925 
1 38:2 402:1 2404:1 2593:2 2596:3 2597:1 2599:1 2602:3 2603:5 2606:1 2607:1 2609:1 2611:1 2700:2 2703:1 3614:1 3615:2 3616:5 3617:1 3621:2 3622:1 3623:5 3627:1 4083:1 4223:1 4272:11 4890:1 4896:1 4897:1 7556:1 7590:21 7961:1 7963:1 8339:1 9187:1 9313:18 9436:1 9499:1 9590:1 10052:36 11455:1 11912:1 12325:1 12326:1 12328:4 12330:4 12331:10 13006:1 13050:1 13231:1 14113:1 14171:23 14553:1 14830:1 14938:4 15365:1 15638:1 16254:1 16353:1 17762:1 17870:1 17872:1 17876:1 18326:1 19120:6 19809:6 19917:1 20382:1 20554:1 20743:1 20745:1 21187:1 21687:2 21695:1 21696:1 21697:1 21700:1 21972:1 22619:1 22620:1 22900:1 23896:4 24101:1 24621:1 24662:1 25542:1 27565:2 28294:15 28481:3 28741:1 28747:1 29002:2 29207:20 29847:1 29848:3 29850:4 29854:3 29855:1 29945:1 30521:1 30666:1 30667:3 31579:1 31946:1 32356:1 32358:2 34269:1 34466:3 34551:1 35594:1 37382:1 37577:3 37578:2 37579:2 37580:1 37582:1 37583:7 37586:1 37591:2 37595:2 37670:1 38381:1 38623:2 38631:2 38633:1 38643:1 39220:1 39619:2 39622:1 39623:1 40236:1 41549:1 42370:1 43054:1 43515:2 43519:1 43756:1 44339:10 44702:1 45154:1 45898:1 46401:2 46648:1 46650:2 47127:1 47131:3 47463:1 47624:1 47626:1 47628:2 47630:2 47632:1 47941:2 47949:1 48540:2 48543:1 48545:3 48547:9 48548:1 48551:1 49403:7 49767:1 50333:1 51003:1 52095:1 52632:1 52818:1 53796:1 54094:1 54233:1 54402:16 54583:1 54623:1 54944:1 55304:1 55305:3 55306:1 55312:2 55664:1 55786:1 56333:2 56457:1 56516:1 56577:1 56844:1 57156:2 57158:1 57162:2 57167:4 57635:1 57676:1 59268:10 59564:1 59742:1 59971:19 60360:1 60580:1 61172:1 61448:1 61872:1 61879:1 62281:2 62421:1 62892:1 62985:1 63094:1 63299:1 63760:1 64017:8 64062:5 64336:1 64715:1 64737:5 65417:1 65485:2 65486:5 65489:1 65952:1 66817:1 67015:1 67077:1 67210:1 68115:1 69128:1 69506:7 69696:992 
1 38:1 44:1 743:1 2593:1 2596:1 2598:2 2601:1 2602:1 2603:2 2606:1 2607:3 2609:2 2700:1 3155:1 3612:1 3615:2 3616:2 3623:7 3625:1 3984:2 4272:16 4556:2 4897:1 5228:2 5509:1 5511:1 5879:2 7590:10 8865:1 9313:15 10052:29 10394:2 10566:1 10799:1 11533:1 12326:2 12331:8 13050:1 13231:1 13244:1 13802:1 13911:1 14109:1 14171:20 14938:7 15638:1 15807:1 16353:1 16371:2 16553:1 17762:1 18325:1 19120:5 19809:7 19948:2 20403:1 20743:1 21389:1 21686:1 21687:4 21688:1 21699:2 21700:3 22109:1 22110:1 22111:1 22616:1 22819:1 23216:2 23896:2 26699:2 28294:7 28481:1 28997:2 29002:2 29006:3 29207:15 29839:1 29843:1 29847:1 29848:2 29849:1 29850:5 29855:1 29856:1 30591:1 30667:2 31893:1 32356:2 33087:2 33645:1 33647:1 34269:1 34466:1 35527:1 37207:1 37579:6 37583:2 37586:2 37591:1 37593:1 37594:1 37595:4 37610:1 38023:1 38381:6 38457:1 38626:1 38628:2 38640:1 38643:1 39192:1 39220:2 39625:1 42573:1 42587:1 42611:1 42878:2 43757:1 44038:2 44339:3 44926:1 44960:1 45898:1 46401:1 46625:1 46642:1 46648:1 46884:1 47116:1 47131:4 47630:1 47941:1 48027:1 48032:3 48540:1 48542:1 48545:2 48547:6 48550:5 48551:2 49403:6 50098:1 50333:1 51019:1 53528:2 54402:21 55226:1 55304:1 55312:1 55318:1 55361:1 56326:1 56328:1 56534:1 56844:1 57155:2 57160:1 57162:3 57163:1 57167:2 59010:2 59268:15 59971:15 60176:1 60362:1 61098:1 61399:2 61431:1 63487:3 63756:2 63761:1 63795:1 64017:6 64062:2 64737:5 65398:1 65485:1 65486:3 65491:1 66082:1 66486:1 66562:1 67661:1 68789:2 69039:1 69046:1 69398:1 69506:3 69696:1036 
1 2596:1 2597:1 2601:1 2602:1 2603:2 2607:1 2609:2 3614:1 3615:1 3623:1 3624:1 3626:1 4272:4 4896:1 5371:1 5879:1 7463:1 7590:3 8339:1 9313:6 9642:1 10052:9 10423:1 11533:1 12326:1 12331:2 13240:1 14171:6 14971:1 14972:1 15610:1 15636:1 17762:1 18326:1 19120:2 19392:1 19809:2 20075:1 20382:1 20743:1 21087:1 21697:1 22614:1 22616:1 25469:1 26127:1 27566:1 28294:6 28481:3 28741:1 29207:8 29845:2 29848:2 29849:1 29855:1 30098:1 30830:1 37577:1 37579:1 37583:2 37592:1 37595:1 38639:1 39623:1 39626:1 41725:1 42617:1 44339:3 46642:1 46660:1 47184:1 47624:2 47630:1 47941:1 47946:1 48547:1 48548:1 48550:1 49403:3 49418:1 49447:1 50333:1 51816:1 54402:6 55305:1 55310:1 57154:1 57156:1 57160:1 59268:1 59971:9 59995:1 60881:1 62281:1 63298:1 63753:1 64017:1 64062:2 64737:1 65482:1 65486:1 65491:1 65956:1 66081:1 67453:2 69037:1 69506:3 69696:276 
1 38:2 269:1 402:1 577:1 1037:1 1119:1 2593:1 2595:1 2602:3 2603:10 2607:4 2609:3 2611:1 2700:1 2873:1 3430:1 3545:1 3615:2 3616:3 3617:4 3621:1 3622:1 3623:6 3624:1 3625:1 3626:4 3798:1 4081:1 4272:36 4329:1 4890:4 4891:1 4894:2 4897:1 5373:1 5508:3 5879:1 5950:1 6449:1 6499:2 6513:1 6796:1 7463:2 7590:24 8384:1 8656:1 9080:1 9313:19 9642:1 10052:47 10570:1 11714:2 12326:1 12328:2 12330:3 12331:13 13236:1 13245:1 13710:1 14109:1 14113:1 14171:42 14938:13 15027:1 15029:1 15132:1 15919:1 15920:1 16172:1 16322:1 17027:1 17762:1 17800:1 17873:1 17875:2 17961:1 18165:2 18326:3 18327:1 18328:1 18397:1 19120:13 19809:13 20382:7 20739:2 20746:1 21087:1 21415:1 21418:1 21686:3 21687:3 21689:1 21692:1 21696:1 21697:6 21698:3 21700:11 21701:1 22614:1 22617:1 22619:1 22620:2 23282:1 23896:3 24157:1 24499:1 24654:1 25168:1 26122:2 26123:1 27321:1 27565:1 27566:1 28027:1 28294:23 28373:1 28481:5 28740:1 28746:2 28747:2 29000:1 29002:3 29006:7 29196:1 29207:33 29844:1 29847:2 29848:10 29850:6 29854:1 30521:2 30578:1 30591:1 30667:2 30668:1 31579:1 32356:1 32358:1 33639:1 34189:2 34265:1 34466:1 34551:1 34557:1 34896:1 35401:1 35764:3 36709:1 36721:1 37382:1 37578:4 37579:4 37580:1 37582:1 37583:2 37584:2 37586:1 37588:2 37591:2 37593:1 37595:11 37821:1 37983:1 38381:7 38623:2 38631:1 39220:3 39387:1 39619:3 39622:1 39623:1 39625:2 39626:2 40113:1 40239:1 40503:1 40571:1 40782:2 41481:1 41483:2 41506:2 41715:1 41720:1 41866:1 41872:1 41885:1 41984:1 42028:1 42068:1 42369:1 42573:1 42801:1 42878:1 43253:1 43355:1 43515:1 44033:1 44038:1 44166:1 44274:3 44339:18 44703:1 44849:1 45753:1 46401:1 46403:1 46625:2 46642:1 46648:2 46649:1 46650:4 47131:5 47463:2 47469:1 47471:1 47624:3 47626:1 47628:3 47630:5 47631:1 47632:2 47633:1 47941:7 47949:1 48026:1 48032:3 48064:1 48069:1 48540:3 48542:1 48545:1 48547:16 48548:3 48550:6 48551:1 49270:1 49403:5 49419:2 50036:1 50172:1 50179:1 50333:1 50371:1 53528:1 53672:1 53804:1 53978:1 54087:1 54310:1 54402:28 54408:1 54816:1 54882:2 55304:2 55305:2 55306:1 55308:1 55310:1 55312:1 55314:1 55318:1 55319:2 55786:4 56457:1 56511:1 56516:1 57041:1 57161:1 57163:1 57167:1 58505:1 58760:1 59268:35 59359:1 59564:2 59742:1 59971:24 60178:1 60361:2 60372:1 60602:1 60881:1 61399:1 61522:1 61976:1 61983:1 61995:1 62074:1 62281:3 62421:1 62892:1 63116:1 63299:2 63398:1 63487:7 63750:2 63756:4 64017:9 64018:1 64062:4 64301:1 64582:2 64737:9 64793:1 65417:1 65454:1 65485:1 65486:8 65487:2 65490:1 65491:2 65505:1 66561:1 67453:1 67762:1 68111:1 68498:1 68557:1 69125:1 69127:1 69128:1 69506:16 69696:1799 
1 38:1 402:1 971:1 1119:1 2599:1 2602:1 2603:2 2605:1 2607:2 2700:1 3616:1 3623:2 4272:5 4897:1 5844:1 7463:1 7590:3 8954:1 9313:4 9934:1 10052:12 10423:1 12326:1 12331:2 13050:1 13233:1 13235:1 13240:1 14171:9 14938:1 15249:1 17762:1 19120:2 19809:1 21418:1 21697:2 21700:1 22617:1 22620:1 23216:1 24499:1 24650:1 26259:1 28067:1 28294:1 28481:2 29002:1 29207:4 29502:1 29845:1 29847:1 29849:2 29855:2 34189:1 34265:1 34466:1 36895:1 37577:1 37579:3 37583:1 37591:1 38381:2 38626:1 38643:1 39220:1 39619:1 39622:1 43355:1 44339:2 44702:1 44849:1 46401:1 47630:1 48027:1 48548:1 48550:2 48551:1 49403:3 50333:1 54402:8 55312:1 55664:1 56916:1 57167:2 57635:1 59268:3 59923:1 59971:7 60418:1 61415:1 62074:1 62281:2 62422:1 62985:1 63299:1 64062:3 65333:1 65417:1 65486:2 65490:1 65949:1 68132:1 68557:1 69506:1 69696:264 
1 1:1 269:1 372:1 398:1 2596:1 2602:2 2603:2 2606:2 2607:1 2609:2 2870:1 3615:1 3617:1 3622:1 3623:1 4272:7 4891:1 4907:1 5156:1 5879:1 5950:1 6545:1 7590:9 8339:1 8759:1 9313:10 9839:1 10052:17 10712:1 11030:1 11455:1 11533:1 12326:1 12328:1 12330:2 12331:3 13006:2 13050:3 13236:1 14171:10 14938:2 15029:1 15061:1 15919:1 16322:2 17762:1 17800:1 17875:2 18325:1 18555:1 19120:3 19809:2 20669:1 20685:1 21686:2 21691:2 21695:1 21696:1 21699:1 22617:1 22619:2 23896:2 24621:2 25889:1 26093:1 27232:1 28294:7 28481:4 29000:1 29207:5 29844:1 29848:4 29850:1 30591:1 30667:2 34230:1 34347:1 37382:1 37578:2 37579:2 37586:2 37593:1 37595:1 37669:1 37818:1 38300:1 38381:3 38623:1 38626:1 38633:1 38639:1 38656:1 39220:1 39623:1 39624:1 40162:1 40237:1 40239:1 40542:1 41506:1 41865:1 41866:1 42573:1 44033:1 44339:13 44924:1 46650:2 46660:1 46953:1 47131:1 47471:1 47624:1 47628:3 47630:1 47632:1 47941:2 48547:7 49270:1 49403:3 50333:1 53052:1 54402:7 54604:1 57154:1 57167:2 58604:1 59268:9 59564:1 59742:1 59971:11 63753:2 64017:3 64018:2 64062:2 64737:4 65486:1 65490:1 66484:1 66486:1 67015:1 68126:1 68498:1 69696:530 
1 38:1 550:1 682:1 1404:2 1438:1 1860:1 2599:2 2602:1 2603:2 3616:2 3621:1 3622:1 3623:4 4263:1 4272:6 5156:1 5760:1 6499:1 6736:1 7590:7 8304:1 8652:1 9313:2 10052:9 11125:1 11533:4 12324:1 12326:2 12331:3 13006:1 13050:1 13217:1 14171:10 14938:2 14970:1 16932:1 17220:1 17800:1 18165:1 19058:1 19120:6 19809:5 20168:1 20743:1 21688:1 21695:1 21697:3 21715:1 22109:1 22619:1 23216:1 23546:1 24125:1 25495:1 25496:1 25498:1 25502:1 25570:1 26093:1 26402:2 26411:1 26414:1 26422:1 27067:1 27270:1 28294:3 28481:2 29002:1 29003:1 29207:10 29771:1 29839:2 29848:1 29850:1 29855:1 30846:1 33528:1 33637:1 34133:1 34466:1 34679:1 35401:5 35578:1 37577:1 37579:1 37583:1 37595:1 38381:2 38626:1 38631:1 38643:1 39619:2 39624:1 39625:1 40237:1 40782:2 41506:2 42878:1 43174:1 44339:7 46401:1 46625:2 46650:1 46658:1 47131:1 47463:1 47628:1 47630:1 47941:1 48545:1 48547:4 48550:1 49055:1 49403:5 50333:1 51613:1 51634:1 53551:1 54402:8 55786:3 56333:1 56511:1 57162:1 57633:1 57635:1 58157:1 59268:6 59742:1 59971:6 60165:1 60418:1 60602:1 61399:4 61994:1 63299:1 63760:1 64015:1 64017:3 64206:1 64737:1 65200:1 65205:1 65417:2 65486:3 65490:1 65947:1 65955:1 66114:4 67261:1 67453:1 68008:1 68132:1 68476:1 68483:1 69388:1 69389:1 69390:1 69392:1 69506:1 69696:521 
1 38:1 550:1 682:1 1404:2 1438:1 1860:1 2599:2 2602:1 2603:2 3616:2 3621:1 3622:1 3623:4 4263:1 4272:6 5156:1 5760:1 6499:1 6736:1 7590:7 8304:1 8652:1 9313:2 10052:9 11125:1 11533:4 12324:1 12326:2 12331:3 13006:1 13050:1 13217:1 14171:10 14938:2 14970:1 16932:1 17220:1 17800:1 18165:1 19058:1 19120:6 19809:5 20168:1 20743:1 21688:1 21695:1 21697:3 21715:1 22109:1 22619:1 23216:1 23546:1 24125:1 25495:1 25496:1 25498:1 25502:1 25570:1 26093:1 26402:2 26411:1 26414:1 26422:1 27067:1 27270:1 28294:3 28481:2 29002:1 29003:1 29207:10 29771:1 29839:2 29848:1 29850:1 29855:1 30846:1 33528:1 33637:1 34133:1 34466:1 35401:5 35578:1 37577:1 37579:1 37583:1 37595:1 38381:2 38626:1 38631:1 38643:1 39619:2 39624:1 39625:1 40237:1 40782:2 41506:2 42878:1 44339:7 46401:1 46625:2 46650:1 46658:1 47131:1 47463:1 47628:1 47630:1 47941:1 48545:1 48547:4 48550:1 49055:1 49403:5 50333:1 51613:1 51634:1 54402:8 55786:3 56333:1 56511:1 57162:1 57633:1 57635:1 58157:1 59268:6 59742:1 59971:6 60165:1 60418:1 60602:1 61399:4 61994:1 63299:1 63760:1 64015:1 64017:3 64206:1 64737:1 65200:1 65205:1 65417:2 65486:3 65490:1 65947:1 65955:1 66114:4 67261:1 67453:1 68008:1 68132:1 68476:1 68483:1 69388:1 69389:1 69390:1 69392:1 69506:1 69696:529 
1 38:1 682:1 1035:1 2593:2 2602:1 2603:2 2606:1 2607:4 2609:4 2612:1 2700:1 3430:1 3615:1 3616:1 3623:2 3642:1 4272:10 4897:1 6614:1 7321:1 7463:1 7590:3 7961:1 9110:1 9313:7 9589:1 10052:15 10570:1 11912:1 12326:2 12331:1 12371:1 13240:1 13721:1 13738:1 14171:13 14177:1 14938:2 15636:1 16994:1 19120:2 19809:3 19935:1 21687:5 21696:1 22809:1 23896:1 24125:1 24621:3 27762:1 28294:3 28740:1 29002:1 29207:8 29502:1 29839:1 29848:1 29854:1 29855:1 30521:1 30667:1 31436:1 33781:1 34269:1 34466:1 34551:1 34705:1 35401:1 35763:1 37577:1 37578:1 37579:1 37583:1 37586:3 37591:1 37595:2 38381:3 38564:1 38628:1 39220:2 39623:1 39625:1 40720:1 41506:1 41851:1 42047:1 42800:1 42878:1 43064:1 43204:1 44339:4 46401:1 46950:1 47624:2 47626:1 47630:1 47941:1 47946:1 48064:1 48541:1 48545:2 48547:1 48548:1 48550:1 48551:1 49403:1 50333:1 50371:2 53533:1 54087:1 54402:11 55306:1 55312:1 55315:1 55318:1 55319:1 55538:1 56511:1 56844:1 57156:1 57167:1 59268:8 59564:1 59971:15 61448:1 62123:1 62281:1 62675:1 63756:1 63759:1 63761:1 64017:1 64062:2 64715:1 64737:6 65485:1 65486:2 65487:1 65505:1 68557:1 68563:2 69046:1 69125:1 69506:5 69696:544 
1 1035:1 2593:2 2602:2 2603:2 2606:1 2607:3 2609:2 2612:1 2700:1 3430:1 3615:1 3623:3 3642:1 4272:7 4897:1 6614:1 7463:1 7590:2 7961:1 8008:1 9313:11 9589:1 10052:16 10570:1 11912:1 12326:1 12331:1 12371:1 13240:1 13721:1 13738:1 14171:12 14938:1 15636:1 16353:1 16994:1 17762:2 19120:2 19809:3 19935:1 20382:1 20738:1 21360:1 21418:1 21687:4 21696:1 21699:1 22616:1 22809:1 23896:1 24621:3 27762:1 28294:3 28481:1 28740:1 29207:10 29502:1 29848:1 29850:1 29854:1 29855:1 30667:1 31436:1 33781:1 34269:1 34705:1 35401:1 37577:1 37578:1 37579:1 37580:1 37583:1 37586:2 37591:1 37595:2 38381:2 38628:1 39220:1 39625:1 40720:1 41370:1 41506:1 42047:1 42799:1 43064:1 43204:1 43756:1 44339:5 44699:1 46950:1 47131:1 47624:2 47626:1 47630:2 47941:1 47946:1 48032:1 48064:1 48545:2 48547:1 48548:1 48550:2 48551:1 49403:1 50333:1 50371:1 51613:1 51654:1 52590:1 53720:1 54087:1 54402:10 55306:1 55312:2 55315:1 55318:1 55319:1 55538:1 56511:1 56517:1 57154:1 57156:1 57160:1 57167:1 57168:1 59268:8 59564:1 59971:13 61448:1 62123:1 62281:2 62675:1 63759:1 64017:1 64062:2 64715:1 64737:4 65417:1 65486:1 65487:1 65505:1 68557:1 68563:1 69026:1 69046:1 69125:1 69506:6 69696:532 
1 38:1 2404:1 2601:1 2602:2 2607:4 2609:1 2612:1 3615:2 3616:1 3623:3 3625:1 4272:11 5508:4 5879:2 6617:1 7463:1 7590:6 7963:1 8339:2 9313:6 9548:2 10052:12 11633:1 11683:1 12326:1 12330:1 12331:1 13006:1 13050:1 13231:1 14109:1 14171:10 14938:3 16254:1 16322:1 16371:1 17851:1 17875:1 18141:2 19120:9 19776:1 19809:2 21060:1 21389:1 21687:1 21697:6 21698:1 22111:1 22334:1 23216:1 24621:1 25608:1 25943:1 28294:3 28995:1 29002:1 29207:8 29845:1 29847:1 29848:1 29849:1 29850:1 29854:1 29855:1 33469:1 33536:1 33852:2 34189:2 36356:1 37579:2 37583:1 37586:2 37591:1 37595:1 38023:1 38025:1 38381:8 38623:1 38631:1 38635:1 38643:1 39619:1 39623:3 39625:1 39626:1 40782:2 41549:1 42365:1 43202:1 44274:4 44339:6 44702:1 44926:1 46403:1 46649:1 46650:1 46656:1 47131:1 47463:1 47626:1 47630:3 48540:1 48547:1 48548:1 48550:1 49056:1 49403:7 49419:1 50255:1 50333:1 52818:1 53804:1 53978:1 54310:1 54402:8 55049:1 55305:1 55312:1 55664:1 57162:1 57163:1 59268:11 59564:1 59971:10 60701:1 60876:1 61098:1 61802:1 62281:1 62288:1 63298:3 63299:1 64018:1 64062:4 64642:1 64643:1 64737:1 65398:1 65417:1 65486:2 65487:1 65489:1 65490:1 65952:1 66486:2 69506:3 69696:580 
1 2602:3 2603:1 2606:2 2609:2 2612:1 2613:1 3615:3 3623:4 3624:2 4082:1 4272:5 5879:2 7590:9 8339:1 9313:18 9377:1 9436:1 10027:1 10052:12 11633:1 12326:1 12328:2 12331:3 13239:1 13240:2 13738:1 14104:1 14171:12 14970:1 15636:1 16254:1 17526:1 17762:1 17800:2 18325:2 18555:2 19120:3 19809:4 20382:2 20743:2 21695:1 21697:1 21700:1 21701:2 22255:1 22620:1 22994:2 23285:1 23896:1 24155:1 25051:1 25943:1 28294:4 28481:2 29207:13 29848:2 29850:3 29855:1 30147:1 30668:1 32168:1 32358:1 33087:1 34266:1 37382:1 37579:3 37582:1 37595:3 37601:1 38072:2 38381:1 38640:2 39621:1 39622:1 39625:1 41506:1 41885:1 42067:1 43515:1 44043:2 44339:7 46648:2 47127:1 47131:1 47624:1 47626:1 47628:1 47630:1 47632:1 47941:1 48032:1 48545:3 48547:4 48550:2 48551:1 49403:1 50333:1 51815:2 54402:9 55305:1 55306:1 55310:1 55315:1 56516:1 57154:2 57156:1 57160:1 57161:2 57162:1 57163:1 57167:2 59268:8 59971:10 60370:1 62056:1 62281:2 63753:1 64017:3 64062:6 64737:2 64782:1 64869:1 65486:1 65491:1 65949:1 67076:2 67453:1 67469:1 68498:1 69127:1 69506:4 69696:511 
1 1057:1 2400:1 2596:1 2601:1 2602:1 2603:2 2606:3 2607:3 2609:1 2610:1 2611:1 2613:2 3623:2 3624:2 4082:2 4272:11 4556:1 4894:1 5879:1 6873:1 7097:1 7590:3 9313:9 10052:15 11441:1 11683:1 12326:1 12330:1 12331:1 13050:2 13240:1 13800:1 14104:2 14171:11 14938:2 16322:1 17875:1 18325:1 18555:1 19120:4 19809:2 20382:1 20743:1 21687:1 21691:1 21700:2 21972:1 22111:1 22616:1 22994:1 23896:2 24662:1 25052:1 25528:1 28294:7 28481:1 28746:1 29000:1 29006:1 29207:6 29845:1 29848:2 29849:1 29850:1 30124:1 30591:1 30667:2 31226:1 31684:1 32358:2 33087:2 34189:2 34266:2 37578:1 37579:1 37582:1 37583:1 37586:2 37588:1 37593:1 37594:1 37595:3 38381:5 38626:1 38629:1 38631:1 38640:1 39220:2 39622:3 40550:1 41506:1 42576:1 42601:1 44038:1 44043:1 44339:7 46650:2 46656:1 47085:1 47463:1 47628:1 47630:2 47938:1 47941:2 48542:2 48545:1 48547:2 48551:2 49403:3 50333:1 51815:1 54402:6 55304:1 55607:1 56844:1 57154:1 57162:1 57167:1 57582:1 57648:1 57676:1 59268:6 59971:17 60116:1 60602:1 60647:1 60888:1 62056:2 62281:3 62616:1 62775:1 63487:1 63753:1 63756:2 64017:1 64018:1 64062:2 64737:5 65485:2 65486:4 65487:1 67372:1 68789:1 69506:1 69696:484 
1 269:2 1239:1 1436:1 2593:3 2596:1 2602:2 2603:3 2607:3 2609:1 3430:1 3615:2 3617:3 3618:2 3621:1 3623:5 3625:1 3626:1 3798:1 4083:1 4272:14 4890:3 4894:1 5156:1 5879:1 6138:2 7590:14 7961:1 9080:1 9313:12 10052:35 11441:2 11900:1 12326:1 12330:2 12331:7 13236:1 13240:2 13738:1 14171:18 14938:5 14970:1 15365:1 15919:2 16105:1 17762:1 17800:1 18325:1 18326:1 18397:1 19064:1 19120:5 19809:4 19935:1 20382:1 20533:2 20743:1 21687:3 21688:1 21696:1 21698:1 21699:1 21700:1 22242:2 22619:2 22620:1 22809:2 23807:1 23896:3 24144:1 24621:2 26951:1 27762:2 28294:8 28481:5 28746:1 28747:2 29048:1 29207:20 29839:1 29845:1 29847:2 29848:4 29849:1 29850:2 29854:2 30667:3 31243:1 31436:1 32358:1 33087:1 34189:1 35213:1 37168:1 37382:1 37577:1 37578:1 37579:2 37583:1 37585:1 37588:1 37589:1 37591:1 37592:2 37595:7 38021:1 38381:2 38394:1 38623:4 38628:1 38639:1 39619:1 39625:1 39626:2 40239:2 41369:1 41483:1 43167:1 44339:8 46648:3 46650:1 47127:1 47131:2 47184:1 47457:1 47624:2 47628:2 47630:2 47941:2 48543:2 48545:3 48547:8 48548:3 49403:7 49767:2 50333:1 51620:1 52397:1 53796:1 54402:16 55305:1 55306:2 55312:4 55315:1 55319:1 55507:1 55790:1 57156:2 57160:1 57167:2 57175:1 57659:1 58159:1 59268:13 59282:1 59359:1 59564:2 59971:15 60115:1 60360:1 60364:1 60370:1 60602:1 60878:1 61399:1 61448:2 61520:1 61576:1 62062:1 62178:2 62281:1 62675:1 63753:1 63761:1 63826:1 64017:6 64062:4 64737:5 65482:1 65486:3 65487:1 65488:1 65491:2 65505:2 65956:1 66815:1 67075:1 67082:1 67291:1 67453:2 67762:1 69125:2 69127:1 69506:11 69696:865 
1 38:1 269:1 402:1 1404:1 2113:1 2596:2 2599:1 2601:2 2602:3 2603:5 2606:5 2607:1 2609:1 2610:2 2700:1 3529:2 3616:2 3617:5 3618:1 3623:7 3625:1 3626:1 3627:1 4272:15 4345:1 4556:1 4890:1 5511:1 6352:2 6499:1 7004:1 7590:12 8155:1 8670:1 8875:1 8983:2 9150:1 9313:14 9436:1 9642:2 10052:27 11533:1 12326:2 12331:5 13006:1 13050:3 13232:1 14109:1 14171:19 14411:1 14938:11 14970:2 15061:1 15122:1 15636:1 15788:1 15919:1 15920:1 16434:1 16594:1 16749:1 17564:1 17762:4 17800:4 18326:3 19120:8 19809:10 19917:1 20033:1 20382:1 20739:1 21087:2 21686:1 21687:1 21688:2 21695:1 21697:2 21700:3 21701:1 22242:1 22614:2 22616:5 22619:2 22620:2 23875:1 23896:1 24144:1 27158:1 28294:10 28481:14 28995:2 29002:2 29003:4 29207:21 29839:1 29848:6 29849:2 29850:6 29851:1 30636:1 30667:1 31840:1 32391:1 33852:1 34466:1 36710:2 37382:1 37579:4 37586:2 37591:1 37595:3 37669:1 38381:6 38587:1 38588:1 38623:3 38635:1 38639:1 38640:1 39192:1 39619:2 39621:1 39622:1 39625:2 40236:1 40239:1 40824:2 41483:1 41506:1 42067:2 42660:1 44033:1 44339:16 44669:1 44702:1 44960:1 46401:1 46642:1 46658:1 46884:1 47127:1 47131:5 47624:2 47625:1 47626:2 47628:1 47630:2 47632:1 47941:4 47952:1 48027:1 48540:1 48542:1 48545:1 48547:5 48548:1 48550:3 49263:1 49403:6 50333:1 50552:1 52550:1 54402:18 54879:1 55306:2 55664:1 55669:1 55786:1 55881:1 57162:1 57164:2 57167:1 57636:1 57659:1 59268:19 59564:2 59971:23 60394:1 61976:1 62281:1 62421:1 62616:1 62775:1 62848:1 63299:2 63724:1 63750:1 64017:4 64062:2 64583:1 64737:1 64772:1 65417:1 65482:1 65486:5 65487:1 65489:1 65491:3 66082:5 66168:1 66484:1 66486:1 67015:1 67076:1 67453:2 67661:1 67884:2 68789:1 69127:2 69128:1 69506:3 69543:1 69696:1122 
1 2597:1 2602:2 2606:2 2609:2 2700:1 3617:1 3621:1 3623:1 4272:3 4371:1 5374:1 6516:1 7590:5 9313:5 10052:7 11533:1 12243:1 12324:1 12326:1 12331:3 13244:1 13245:1 13323:1 14171:12 14938:2 15636:1 18328:1 19809:2 20382:1 21687:1 21688:1 21691:1 21699:1 21700:1 22616:1 23216:2 28294:1 28481:1 29207:6 29845:1 31840:1 37591:1 37595:1 38626:1 40551:1 41865:1 42369:1 43204:1 44339:3 46650:1 47463:1 47630:2 48545:1 48547:3 48548:2 48550:1 49403:3 50333:1 54402:2 55310:1 57162:1 57167:2 59268:8 59564:2 59971:7 60881:1 62281:1 62675:1 64017:3 64062:2 64790:1 65487:2 65505:1 65956:1 66082:1 66842:1 67880:1 69125:1 69506:1 69696:278 
1 269:2 402:1 1057:1 1119:1 1436:1 2593:1 2596:1 2601:1 2602:3 2603:5 2605:2 2606:2 2607:2 2609:2 2610:1 2612:1 2700:1 2703:1 3615:2 3617:6 3618:2 3623:10 3625:3 4272:20 4534:2 4830:1 4890:1 5508:2 5511:1 5879:1 6512:1 6873:1 7590:10 7961:2 8189:1 8823:1 9313:23 9548:2 9589:1 9642:1 9737:1 10052:38 10394:1 10570:1 11441:2 12326:1 12330:1 12331:5 13006:1 13231:3 13245:1 13264:1 13587:3 13738:1 14171:30 14938:5 15919:2 17762:8 17800:1 17870:1 18325:1 18326:2 19120:8 19809:7 19935:1 20382:2 20743:1 21087:1 21418:4 21687:1 21692:1 21695:1 21696:1 21697:3 21698:1 21700:3 21701:1 22255:1 22614:2 22616:1 22617:1 22619:3 22620:1 23216:1 23287:1 23896:6 24149:1 24425:1 24577:1 25052:1 25507:2 26853:3 27565:1 28070:2 28294:11 28481:9 29006:3 29207:28 29280:1 29847:3 29848:3 29849:2 29850:5 29854:1 29855:2 30147:1 30578:4 30591:1 30666:2 30667:3 30668:1 31893:1 32356:1 32660:1 32823:1 33532:1 33647:1 33778:2 34495:1 34707:1 36366:1 36566:2 37577:1 37578:1 37579:2 37582:1 37586:3 37591:2 37593:1 37595:6 37615:1 38021:1 38381:10 38430:1 38626:2 38628:1 38631:1 39047:1 39192:1 39220:3 39622:1 39623:3 39625:1 39626:1 39629:2 40236:1 40239:2 40544:1 40550:1 41368:1 41483:1 42576:1 42878:2 43071:1 44038:2 44274:2 44339:7 44700:1 44960:1 46173:1 46625:2 46650:1 46660:1 46938:1 47127:1 47131:5 47630:1 47631:1 47935:1 47941:1 47949:1 48027:2 48032:1 48540:1 48541:1 48545:3 48547:6 48548:7 48550:4 48551:1 49403:6 49419:1 50333:1 51613:2 51654:1 53101:1 54402:19 54960:2 55304:1 55305:1 55310:1 55312:2 55315:2 55318:1 55607:2 56193:1 57156:2 57160:1 57161:1 57167:2 58942:1 59113:1 59268:19 59359:1 59564:2 59971:23 60876:1 60880:1 60881:1 60964:1 61291:1 61399:1 61499:1 62281:5 62421:1 62504:1 62675:1 63110:1 63298:2 63487:2 63759:1 64017:4 64062:7 64715:1 64737:2 65097:2 65141:2 65417:1 65454:1 65486:5 65490:1 65491:3 65505:1 65949:2 66094:2 66114:2 66486:1 67840:1 67929:1 68135:1 68557:1 69046:4 69125:1 69506:15 69696:1261 
1 2596:1 2597:1 2599:1 2602:1 2603:1 2606:3 2607:1 2609:2 2700:1 3623:1 4272:5 5511:1 5879:1 7590:1 9313:6 10052:7 11533:1 12326:1 14171:5 14938:1 15636:2 18327:1 19120:3 19809:3 20739:1 20745:1 21697:1 21700:1 22616:2 24621:1 28294:2 28310:1 28481:2 29006:1 29207:2 29508:1 29848:1 35594:1 37585:1 37586:1 37591:1 37595:2 38381:2 38635:1 39192:1 39625:1 39626:1 40570:1 44339:3 44926:1 44960:1 45154:1 46650:1 46658:1 47463:1 47626:1 47630:1 48032:1 48550:2 49263:1 49403:1 49419:1 50333:1 53804:1 54402:3 57162:1 57167:1 57635:1 59268:2 59971:11 60398:1 61431:1 63487:1 64552:1 64737:1 65486:1 65487:1 66082:2 66486:1 67880:1 69696:235 
1 224:1 402:1 1438:1 2167:1 2593:2 2597:1 2602:2 2603:4 2606:2 2608:1 2609:2 2612:1 2706:1 2768:1 2852:1 3612:1 3617:5 3621:1 3623:9 3626:2 3627:2 4084:2 4272:10 4345:1 4738:1 4822:1 4890:1 5950:1 7590:14 7961:1 9313:24 9363:1 9642:1 9839:1 10052:31 10954:1 11714:1 12324:1 12326:2 12328:2 12330:3 12331:5 13006:3 13050:1 13231:1 14171:25 14229:1 14740:1 14938:6 15061:1 15477:1 15661:1 16144:1 16322:1 16434:1 17026:1 17564:1 17762:6 17874:1 17875:2 18326:1 18328:1 18403:1 18743:1 19120:9 19809:14 19917:1 20033:1 20581:1 20739:1 20742:1 20743:1 21686:2 21687:2 21688:1 21691:1 21692:2 21695:5 21696:1 21697:1 21701:1 21826:1 22105:1 22614:1 22616:2 22619:1 22620:1 23807:3 23896:1 24621:3 25570:1 26411:1 27068:1 28294:14 28481:9 28834:1 29003:2 29006:1 29207:23 29339:1 29643:1 29771:2 29844:1 29848:4 29849:3 29850:5 29854:1 30521:1 30667:1 30907:1 31243:1 31279:1 31692:1 31828:1 32356:1 32358:2 33087:2 33627:1 33629:1 33781:1 33852:2 34559:1 35401:1 35630:1 35723:1 36709:1 37167:1 37382:1 37578:1 37579:2 37582:3 37583:3 37584:1 37586:2 37589:1 37591:1 37595:4 38381:4 38396:1 38623:1 38628:2 38635:1 39220:4 39418:1 39619:1 39622:2 39624:3 39625:1 40236:1 41369:1 41483:1 41506:1 41866:1 41984:1 42044:1 42794:1 42878:2 43253:1 44033:1 44339:14 46625:1 46642:4 46650:3 46656:1 47127:1 47131:5 47464:2 47624:3 47628:2 47630:2 47845:1 47927:1 47941:3 47949:1 48541:1 48543:4 48545:2 48547:6 48548:4 49055:2 49403:6 49774:1 50179:1 50333:1 50552:1 51613:1 51627:1 52613:1 53546:1 53672:1 54402:21 54882:1 55169:1 55198:1 55304:3 55312:1 55319:1 55786:1 55794:2 55916:1 56333:1 56511:1 56844:1 56969:1 57160:1 57161:1 57162:1 57167:1 57646:1 59268:21 59282:1 59564:1 59971:19 60700:1 60878:1 61172:2 61399:3 61447:1 61987:1 62281:2 62421:1 63171:1 63262:1 63753:2 63759:1 64015:1 64017:3 64018:1 64062:2 64737:9 64772:1 65234:1 65486:2 65487:1 65490:3 65491:1 66078:1 66561:1 66710:1 67015:1 67453:1 67762:1 67900:1 68008:1 69046:1 69506:5 69539:1 69696:1350 
1 269:1 836:2 1119:1 2400:1 2596:1 2598:1 2601:1 2602:1 2603:1 2606:3 2607:2 2609:5 2700:1 2703:1 3615:2 3617:2 3621:2 3622:1 3623:4 3984:1 4272:14 4556:2 5156:1 5228:1 6904:1 7463:1 7590:13 9110:1 9313:11 9838:1 10028:1 10052:25 11441:1 11533:1 12326:1 12328:2 12330:2 12331:3 13006:1 13050:1 14157:1 14171:21 14174:1 14554:1 14938:7 14972:1 15070:1 15563:1 15637:2 15784:1 15919:1 15920:1 16105:1 16173:1 16322:1 16371:1 17692:1 17762:2 17800:1 17874:1 17875:1 18394:1 18778:1 19120:8 19809:4 20382:1 20739:1 21418:2 21687:3 21688:1 21695:1 21698:1 21700:1 22616:1 22617:1 22619:2 22620:1 23215:1 23896:2 24621:1 24648:1 25671:1 26699:2 26853:1 28294:8 28481:5 28846:1 28997:1 29000:1 29006:1 29048:1 29207:15 29839:1 29844:1 29849:2 29850:2 29855:3 30521:1 30667:2 34187:1 34551:1 36206:1 36361:1 36710:1 37578:1 37579:2 37582:1 37583:2 37586:3 37590:1 37591:2 37595:3 38381:3 38633:1 38643:2 39220:2 39623:3 39624:1 39626:2 40236:1 40239:1 41506:1 43201:1 43204:1 43515:1 43519:1 43579:1 44339:6 44699:1 45482:1 46642:1 46648:1 46650:2 46660:1 47131:2 47628:1 47630:1 48032:1 48541:2 48542:1 48545:2 48547:5 48548:1 48550:2 49055:1 49403:6 49420:1 50333:1 50371:2 51613:1 51660:1 53101:1 54402:16 55305:1 55312:1 55319:1 55538:1 55620:1 56194:1 56537:1 56844:1 57164:1 57167:3 59010:1 59257:2 59268:15 59564:3 59569:1 59971:17 60514:1 61098:1 61576:1 62281:2 62288:1 62675:1 63416:1 64017:1 64018:1 64715:1 64737:1 65397:1 65417:1 65485:2 65486:4 65487:2 65489:1 65490:1 65491:1 65505:1 65606:1 65949:1 66082:1 66486:1 66562:1 67453:3 68280:1 68498:1 68789:2 69125:1 69401:1 69506:3 69696:907 
1 269:1 300:1 1404:2 2400:1 2404:1 2593:1 2601:1 2602:2 2603:3 2605:2 2606:3 2607:4 2609:1 2610:2 2611:1 2704:2 2887:1 2966:1 3615:2 3617:2 3621:1 3622:2 3623:5 3625:1 4083:1 4272:14 4345:1 4897:1 4907:1 5879:1 7590:22 7961:3 7963:1 8091:1 9313:19 10052:35 10799:1 11256:1 12326:2 12328:3 12330:3 12331:10 13050:1 13232:1 13233:1 13240:1 13245:1 13321:1 13601:1 14171:27 14938:10 15029:2 15919:1 16434:1 17108:1 17762:2 17800:2 17874:1 17876:1 18325:1 18326:1 18555:1 19120:7 19809:7 19935:2 20717:1 21687:2 21689:1 21693:1 21695:2 21697:4 21698:1 21700:4 22108:1 22614:1 22616:1 22619:2 23216:2 23896:1 24621:4 25785:2 26165:1 26951:1 27077:1 27143:1 27568:1 27651:1 28067:1 28294:11 28481:8 29000:1 29006:2 29207:17 29502:1 29839:2 29848:2 29849:1 29850:4 29855:1 30292:1 30668:1 31357:1 31436:1 32358:1 32660:1 33322:1 33469:1 33536:1 33852:1 33927:1 34189:1 34950:1 35213:1 36206:1 36357:1 36366:2 36566:1 37437:1 37577:1 37578:3 37579:2 37583:7 37585:1 37586:1 37591:1 37595:3 38021:1 38203:1 38381:4 38394:1 38399:1 38623:3 38626:1 38628:1 38633:1 38643:1 39220:1 39413:2 39619:2 39621:1 39622:3 40236:1 40239:1 40306:1 40542:1 40569:1 40570:1 40720:1 40795:1 41549:1 41587:1 42369:1 43515:1 43519:1 44339:10 44563:1 46650:1 46884:1 47131:4 47626:3 47628:1 47630:2 47941:1 48540:1 48543:1 48545:2 48547:12 48548:2 48551:1 49306:1 49403:11 50194:1 50333:1 53396:1 53817:1 54402:16 54587:1 55271:1 55305:1 55504:1 55684:1 55700:1 55797:1 56333:2 56844:1 57154:1 57158:1 57162:1 57167:4 58604:1 59268:24 59564:5 59971:20 60544:1 60877:1 60880:1 61172:2 62281:4 63118:1 63299:1 63487:2 63756:1 63761:2 64017:9 64062:8 64552:1 64555:1 64737:8 65333:2 65486:3 65488:1 65490:4 65491:1 66082:1 66216:1 66486:1 67081:1 68118:2 68119:1 68557:1 68765:1 69169:1 69206:1 69506:2 69696:1131 
1 269:1 1758:1 2601:2 2602:2 2607:1 3617:1 3622:1 3623:1 3625:1 4272:3 5879:1 5950:1 7590:4 9046:1 9313:2 9642:1 10052:5 11533:2 12326:1 12328:1 12331:1 14171:4 14938:1 15919:1 16173:1 18325:1 18394:1 19809:2 21172:1 21687:1 22614:1 22619:1 23896:1 28294:1 28481:2 29000:1 29207:7 29848:1 29850:1 30668:1 33692:1 37382:1 37592:1 37593:1 37595:1 39220:1 40239:1 41506:1 41866:1 44339:5 47131:1 47628:1 47630:3 48547:3 49270:1 49403:2 50333:1 54402:3 56328:1 56844:1 59268:1 59971:5 64017:1 65486:1 67453:1 67840:1 68498:1 69696:224 
1 402:1 2598:2 2602:1 2603:3 2606:1 2612:1 2700:1 2703:1 3616:1 3621:1 3622:1 3623:4 3625:1 3984:1 4272:8 4617:1 4891:1 5156:1 5228:1 7590:5 9313:9 10028:1 10052:14 11533:2 12326:1 12328:2 12331:2 14171:8 14554:1 14938:9 17762:2 17851:1 19120:5 19776:1 19809:4 20033:1 20140:1 20382:1 20743:1 21418:1 21443:1 21687:1 21697:1 25168:1 26603:1 27566:1 28294:3 28846:1 28995:1 28997:1 29002:2 29006:1 29048:1 29207:12 29388:1 29847:1 29850:1 30521:1 31579:1 33781:1 34551:1 34950:1 35213:1 36017:1 36356:1 37578:1 37582:2 37583:1 37585:1 37591:1 37595:3 38381:2 38633:1 39220:1 39622:1 39623:1 39624:1 39920:1 40279:1 41506:2 42878:1 43198:1 43201:1 43514:1 43519:1 44339:4 46648:1 47131:1 47630:1 47893:1 48032:2 48540:1 48547:1 48548:2 48550:2 49403:3 50333:1 51460:1 52590:1 54342:1 54402:8 55305:1 55312:1 55319:1 55786:1 55996:1 56517:1 56844:1 57167:3 59010:1 59268:5 59564:2 59971:8 60362:1 61576:1 61972:1 62279:1 62281:2 62421:1 63298:1 64017:1 65487:2 65490:1 65491:1 65505:1 67878:1 68494:1 68501:1 69046:1 69125:1 69128:1 69396:1 69506:3 69696:491 
1 348:1 1404:1 1412:1 2593:1 2597:1 2599:1 2602:2 2607:4 2609:1 3616:1 3617:1 3621:1 3622:2 3623:2 3625:1 3626:1 4272:10 7463:1 7590:6 8205:2 8417:1 8819:1 9313:3 9387:1 10052:16 12324:1 12326:3 12331:1 13050:1 13240:2 13632:1 14171:9 14938:3 15636:1 17225:1 17800:1 19120:4 19809:9 20033:1 20382:1 20742:1 20743:1 20746:1 21687:1 21688:1 21695:1 22619:1 23807:1 23896:1 25509:1 25570:1 26169:1 26437:1 27375:1 28294:12 28481:2 29002:1 29207:13 29416:1 29502:1 29848:1 29850:2 29855:1 30576:1 30591:1 30667:1 31683:1 33164:1 35281:1 35531:1 36206:1 36366:1 37578:3 37579:1 37583:5 37586:1 37588:1 37593:1 37595:2 38381:2 38623:1 38626:2 39220:5 39625:1 39626:2 40236:1 40543:2 41506:1 42498:1 42878:1 44339:13 46625:1 46650:6 47131:2 47463:1 47469:1 47471:1 47472:1 47626:1 47628:1 47630:6 47681:1 48543:1 48545:1 48547:2 48548:1 48550:1 49152:1 49403:3 49419:1 50333:3 50453:1 53804:1 54402:6 55304:2 55743:1 56124:1 56328:1 56844:3 57164:1 57633:1 59268:8 59564:1 59971:13 60877:1 63243:1 63398:1 64015:1 64017:1 64062:2 64772:1 64869:1 65482:1 65486:1 65490:3 65756:1 66114:1 66484:1 67661:1 67762:1 68115:1 68563:2 69037:1 69506:3 69696:573 
1 2602:1 2603:2 2606:1 2607:1 2700:1 2703:1 3611:1 3623:1 4272:3 4891:1 6499:1 7590:3 8670:1 9313:6 9642:1 10027:1 10052:10 12326:2 12331:1 13006:1 14171:4 14552:1 14938:1 17762:2 18326:1 19120:3 19809:3 20033:1 20771:1 20933:1 21087:1 21418:1 21697:2 22614:1 22616:1 25168:1 27566:1 28294:2 28481:2 29207:3 29839:1 29843:1 29847:1 29848:1 29849:2 29850:1 30521:1 31579:1 34551:1 37578:1 37579:1 37582:1 37586:1 37591:1 37595:2 38381:1 39622:1 39626:1 39629:1 44339:4 46884:1 47131:1 47630:2 47941:1 48032:1 48550:1 50333:2 53840:1 54402:8 55305:1 55308:1 57167:3 59268:2 59971:6 62281:1 62797:1 63761:1 64737:1 64771:1 65333:1 65486:1 66082:1 66486:1 69506:2 69696:250 
1 430:1 2599:1 2602:1 2603:1 2609:4 3618:2 3623:3 3625:1 3627:1 4272:12 4670:2 4897:2 5760:1 6515:2 6599:2 7590:8 9313:2 10052:15 11441:2 11683:1 12326:1 12330:1 12331:6 13245:2 13800:1 14171:16 14938:6 14970:1 16353:4 17851:2 17870:1 18137:1 19120:1 19776:2 19809:3 20382:1 20448:1 20743:1 21686:2 21687:6 21688:2 21697:1 21700:4 22242:2 23896:2 25540:1 27565:1 28294:6 28707:2 28740:1 28866:2 28995:2 29002:1 29006:2 29207:12 29387:1 29848:3 29849:1 29850:2 30667:2 30906:2 31807:2 34262:2 34738:1 36356:3 37578:3 37579:2 37582:2 37591:2 37595:2 38633:2 38639:1 39619:1 39920:1 40782:1 42067:1 42878:6 43757:2 43759:2 44339:7 46642:2 47131:1 47629:2 47630:2 48542:3 48545:1 48547:3 48548:2 48551:2 48838:1 49403:6 50333:1 51613:2 53498:2 53528:4 53529:1 54402:13 55305:1 55306:1 55319:1 56124:1 57041:2 57166:2 57635:1 59268:19 59971:8 61436:2 61879:1 62675:2 63299:1 63487:2 63927:1 64017:3 64062:2 64553:2 65485:2 65486:2 65487:1 65490:3 65491:1 65505:2 66114:1 66562:2 67075:1 67453:1 69125:2 69127:1 69188:1 69506:3 69696:584 
1 46:1 269:1 402:1 2593:1 2596:3 2599:1 2602:4 2607:1 2608:1 2609:2 2611:2 3430:1 3617:2 3618:1 3621:2 3622:1 3623:4 3642:1 4083:1 4272:4 5156:1 7463:1 7590:14 8819:1 9313:5 9642:1 9838:1 10052:18 10799:1 10954:1 11256:1 11426:1 11910:1 11912:1 12326:1 12328:1 12330:6 12331:3 13006:1 13050:2 13240:1 13245:1 14171:22 14900:1 14938:4 15919:1 16322:1 17800:2 17872:3 17875:2 19120:7 19809:4 20382:1 21246:1 21686:1 21687:2 21688:1 21695:2 21697:2 21698:1 21700:1 21972:1 22108:1 22110:1 22242:1 22614:2 22617:1 22619:2 22620:2 22819:1 23896:4 26165:1 27143:1 27692:1 28294:5 28481:7 29002:1 29006:1 29207:12 29215:1 29421:1 29502:1 29844:1 29845:1 29850:2 29855:1 29856:1 30591:1 30666:1 30667:3 32358:1 33087:1 33927:1 35757:1 36206:1 36710:1 37382:2 37578:1 37579:1 37582:1 37583:1 37589:1 37593:1 37594:1 37595:1 38203:1 38381:4 38623:3 39220:3 39619:2 39622:1 39625:1 39626:1 40236:1 40239:1 40720:1 42155:1 42573:1 43394:1 44339:15 46948:1 47085:1 47131:1 47624:2 47626:2 47628:3 47630:1 48541:1 48545:3 48547:5 48548:3 48550:1 49055:1 49403:3 50333:1 54402:9 55169:1 55304:2 55305:1 55306:2 55319:1 56150:1 56516:1 56844:1 56969:1 57162:2 59268:18 59282:2 59392:1 59564:2 59971:16 60115:1 60602:1 60878:2 61873:1 62281:2 63299:1 63487:1 63753:3 63756:1 63759:1 64017:3 64018:1 64062:3 64737:6 65487:1 65606:1 65936:1 65956:1 66710:1 67015:1 67372:1 67469:1 68114:1 68115:1 68557:1 69506:6 69696:781 
1 402:1 2593:1 2597:1 2599:1 2601:1 2602:1 2603:7 2606:3 2700:1 2705:1 3615:1 3617:1 3621:2 3623:4 3624:2 4272:8 4891:1 5879:1 6401:1 6516:2 7590:9 8869:1 9313:14 9637:1 10027:1 10052:23 10425:1 11533:2 12326:1 12328:2 12331:4 13231:1 13235:1 13245:2 13799:1 14171:18 14938:3 15531:1 16679:1 17762:4 18325:1 18961:2 19120:6 19809:5 19935:2 20382:2 20581:1 20743:1 20745:1 20746:1 21418:1 21451:1 21687:1 21688:2 21689:1 21691:1 21698:1 21700:1 22418:1 22614:1 22616:1 23768:1 24577:2 24621:3 25996:1 26398:1 26505:1 27377:2 28294:6 28481:2 28981:1 29000:1 29006:1 29048:1 29207:17 29608:1 29845:1 29848:4 29850:2 29854:1 30124:1 35401:1 35527:1 35594:1 36364:1 37578:1 37579:3 37582:1 37583:1 37591:4 37595:2 37756:1 37899:1 38381:2 38623:2 38626:1 38633:1 38667:1 39220:2 39621:3 39623:1 39625:1 39626:1 39698:1 40572:1 42538:1 43515:1 43519:1 44339:6 44702:2 44703:2 45154:1 46648:2 46658:1 47131:1 47626:1 47630:3 47631:1 47941:2 48027:1 48200:1 48539:1 48542:1 48547:3 48548:3 48550:2 48551:2 49403:4 49625:1 49774:1 50333:1 53345:1 53758:1 53796:1 54402:19 55308:1 55312:3 55318:1 55319:1 55475:2 55797:3 56326:1 56517:2 56620:1 56844:2 57158:1 57161:1 57167:3 57635:1 59268:7 59282:1 59971:16 60364:2 60878:1 61576:1 62281:4 62421:1 62540:2 63487:1 63759:1 63761:1 64017:3 64062:6 64336:1 64737:5 65417:4 65486:1 65490:2 65491:2 65505:1 65952:1 66082:1 66539:2 68120:1 69039:2 69125:1 69401:2 69506:6 69696:719 
1 2602:1 2603:2 2608:1 2609:1 3623:3 4272:2 7590:2 8869:1 9313:2 10052:2 12326:1 13231:1 13245:1 14171:7 18326:1 19120:2 19809:2 21698:2 26853:1 28294:1 29207:4 29848:1 29850:1 29851:1 29855:1 35999:1 37578:1 37595:1 38198:1 38381:1 38626:1 39337:1 39619:1 39624:1 42394:1 42797:1 44339:2 47131:1 47630:1 47941:1 47952:1 48032:1 48540:1 48541:1 48543:1 48547:1 48550:1 49403:2 50333:1 54402:6 56329:1 56511:1 57156:1 58437:1 59268:3 59971:5 62564:1 63756:1 64062:2 64737:1 65486:1 65491:1 65949:1 69696:179 
1 290:1 1119:1 2596:1 2602:2 2603:2 2607:3 2609:1 2700:1 3615:2 3621:1 3626:1 4083:1 4272:11 4534:1 4894:1 5156:1 5371:1 5400:1 5508:1 5512:1 5760:1 5879:1 7590:8 7683:1 7861:1 9110:1 9313:6 10052:13 12326:1 12331:5 12358:1 13006:1 14171:10 14174:1 14938:1 14972:1 15661:1 15780:1 15970:1 16371:1 17565:1 19120:4 19809:4 20382:1 20739:1 21187:2 21687:3 21690:1 21700:3 22617:1 23896:1 26939:1 28294:6 28481:1 28746:1 29006:1 29207:6 29850:2 30371:1 30521:1 30666:1 32336:1 32358:1 34187:1 34189:1 34551:1 37583:1 37586:2 37588:1 37591:1 37595:2 37899:1 38021:1 38022:1 38381:3 39619:1 39621:1 39918:1 40570:1 41872:1 42536:1 42878:3 44272:1 44339:5 44702:1 46642:1 46648:1 46650:1 46660:1 47630:2 47690:1 47928:1 48032:1 48547:3 48550:1 49403:1 50333:1 50371:1 50521:1 52633:1 53524:1 53534:1 54402:6 55305:1 55310:1 55319:1 55620:1 55664:1 57161:1 57164:1 57167:1 59268:8 59971:9 61101:1 61499:1 62281:1 63487:1 63753:1 64017:3 64062:1 64715:1 64737:2 65417:1 65485:1 65486:3 65490:1 65491:1 66562:1 66995:1 67453:1 68280:1 69506:3 69696:529 
1 269:1 550:1 577:1 732:1 2599:1 2602:2 2603:2 2606:1 2607:1 3615:1 3616:3 3617:2 3623:3 3627:1 4272:15 4556:2 4890:1 4894:1 6513:1 7590:5 7961:1 9313:9 10052:13 11533:1 12326:1 12331:3 12371:1 13245:1 13800:1 14113:1 14171:12 14938:3 15919:1 17762:1 17851:1 19120:5 19776:1 19809:4 20448:1 20739:1 21418:1 21687:1 21700:2 22333:1 22619:1 22809:1 24685:1 27762:1 28294:2 28481:1 28726:1 28746:1 28995:1 29207:13 29839:1 29850:1 29854:3 34189:1 34466:2 35567:1 36356:1 37578:1 37580:1 37582:1 37583:2 37588:1 37591:1 37595:1 37899:1 38381:1 38628:1 39624:1 40239:1 43201:1 44033:1 44339:4 46884:1 47131:1 47626:1 47628:1 47630:1 47949:1 48542:2 48543:1 48545:1 48547:3 48548:1 49017:1 49403:2 50333:1 54402:6 55319:1 56329:1 56333:2 56457:1 57156:2 57161:1 57635:1 59268:5 59971:8 61448:1 62281:2 62775:2 63759:1 64017:2 64062:2 64737:1 65486:7 65487:2 65490:1 65505:1 65952:1 68789:2 69125:1 69407:1 69506:2 69696:495 
1 1412:1 2414:1 2593:1 2602:2 2603:1 2606:1 2609:3 3615:1 3626:1 4272:6 4897:1 6514:1 7590:10 8819:1 9313:9 10052:12 12326:2 12328:1 12331:6 13240:1 13245:1 14171:22 14938:3 17564:1 17762:1 18137:1 19120:4 19809:2 20382:2 21418:1 21687:2 21697:2 21699:1 21700:1 21701:1 22614:1 22616:1 22620:1 24621:1 28294:2 28481:3 28740:1 29002:1 29006:1 29207:8 29848:1 29849:1 31243:1 33852:1 34262:2 34950:1 35213:1 37578:1 37579:1 37588:1 37591:1 38072:1 38381:1 39220:2 39275:1 39619:1 39623:3 40306:1 40782:1 41369:1 42365:1 44339:5 44848:2 45140:1 46625:1 46650:1 47626:1 47628:1 47630:1 47632:1 47941:1 48541:2 48543:1 48545:3 48547:6 48548:2 48551:2 50333:1 50552:1 51815:1 54356:1 54402:8 55304:1 55305:1 55312:1 55684:1 56196:1 56516:1 56517:1 57160:1 59125:1 59268:10 59564:1 59971:8 62281:6 62288:3 62675:2 63298:1 63299:1 63416:2 63487:1 64017:6 64062:3 64642:1 64737:1 65486:1 65489:3 65491:1 65505:2 66072:1 67076:1 67469:1 68115:1 69125:2 69506:3 69696:509 
